%YAML:1.0
my_nn: !!opencv-ml-ann-mlp
   layer_sizes: !!opencv-matrix
      rows: 1
      cols: 3
      dt: i
      data: [ 3600, 10, 2 ]
   activation_function: SIGMOID_SYM
   f_param1: 1.
   f_param2: 1.
   min_val: -9.4999999999999996e-01
   max_val: 9.4999999999999996e-01
   min_val1: -9.7999999999999998e-01
   max_val1: 9.7999999999999998e-01
   training_params:
      train_method: BACKPROP
      dw_scale: 1.0000000000000000e-02
      moment_scale: 1.0000000000000001e-01
      term_criteria: { epsilon:1.0000000000000001e-05, iterations:100 }
   input_scale: [ 7.7499700976177843e+00, -4.6124389508313407e-01,
       1.2676272623100463e+01, -7.1093858857930714e-01,
       1.4899702074509490e+01, -9.3359436585666311e-01,
       1.3693406361777956e+01, -9.8475650133431902e-01,
       1.1457574527945889e+01, -1.0456523466248180e+00,
       9.8934576931691964e+00, -1.0829171108209406e+00,
       8.6564872200829868e+00, -1.1559455685180002e+00,
       8.0220681525019071e+00, -1.2262105904386549e+00,
       7.7440540023610618e+00, -1.2743747460056087e+00,
       7.5992106416000835e+00, -1.2910769636766906e+00,
       7.0860700500289093e+00, -1.2790887691228638e+00,
       6.2999555742440174e+00, -1.3088575522614789e+00,
       5.1334452600641178e+00, -1.3464192066188923e+00,
       4.1249864229766331e+00, -1.4147228522169586e+00,
       3.4554149555405167e+00, -1.4834969225214181e+00,
       3.2422998574044266e+00, -1.5914194974838001e+00,
       3.2013895196543851e+00, -1.6594053634748334e+00,
       3.2313695660058781e+00, -1.6745724867433003e+00,
       3.3317400577704408e+00, -1.6519397431765490e+00,
       3.5257288283387220e+00, -1.5739715605634403e+00,
       3.8490306212771279e+00, -1.4550401224032061e+00,
       4.1913122112545995e+00, -1.2944966866997707e+00,
       4.4392156242422072e+00, -1.2174561649990667e+00,
       4.2779381480445622e+00, -1.2081351275071643e+00,
       3.7482526208801992e+00, -1.2606579749119575e+00,
       3.3176601193762876e+00, -1.3898202483938498e+00,
       3.1263581717243731e+00, -1.5271195913786304e+00,
       3.1510144327586214e+00, -1.6766340636590213e+00,
       3.2489048642178191e+00, -1.7486752651525324e+00,
       3.4967857622102994e+00, -1.8034460825517131e+00,
       3.9490469080139525e+00, -1.8361701670047579e+00,
       4.5769651244736771e+00, -1.7929086279116186e+00,
       5.9371308488854853e+00, -1.8686211999880358e+00,
       7.5030100365710481e+00, -1.9116665710248475e+00,
       8.2413340974452893e+00, -1.8588153203638111e+00,
       8.0409611826945877e+00, -1.7415126713730966e+00,
       7.3458884380322456e+00, -1.5816536610953491e+00,
       7.0285616300513354e+00, -1.5698742325945092e+00,
       6.6845078903679545e+00, -1.5813063071677806e+00,
       6.4850340421087029e+00, -1.6317303071349618e+00,
       6.3720233909117967e+00, -1.7519389571033430e+00,
       6.0924909900523625e+00, -1.8425041956075299e+00,
       5.7469027915397808e+00, -1.9411539590570053e+00,
       5.2986371024598879e+00, -1.9967672517891641e+00,
       4.8190988150931844e+00, -1.9944788146779833e+00,
       4.5404671353542962e+00, -2.0081224025970066e+00,
       4.4694026455893061e+00, -2.0332689025219857e+00,
       4.5148011842620619e+00, -2.0726686751625221e+00,
       4.5809778280277422e+00, -2.1004073945636996e+00,
       4.6967609965091635e+00, -2.1161156450535081e+00,
       4.7851886940861155e+00, -2.0824125654886871e+00,
       4.9985156720927169e+00, -2.0899214891967812e+00,
       5.1828583827058701e+00, -2.0333901717155727e+00,
       5.4322455229101667e+00, -1.9485909545848463e+00,
       5.9876691022125810e+00, -1.8600103586544436e+00,
       6.7943224127030790e+00, -1.7632324600440501e+00,
       7.7614175624490276e+00, -1.6406848947610655e+00,
       8.9824019412948211e+00, -1.4973259983455964e+00,
       1.0436349857983254e+01, -1.4243149907103423e+00,
       1.1886514687397815e+01, -1.2746813184092392e+00,
       7.4156247814181082e+00, -5.0848776615375557e-01,
       1.1190360037598747e+01, -7.5054144888854235e-01,
       1.2410789942723740e+01, -9.9236218313647295e-01,
       1.0303378151571815e+01, -1.0151857884636921e+00,
       8.5218033771054476e+00, -1.0772660324460848e+00,
       7.0678154146786065e+00, -1.1423040772570219e+00,
       6.4643992481088919e+00, -1.2880334141993188e+00,
       5.9434291065951417e+00, -1.3844008166976787e+00,
       5.5800339685626792e+00, -1.4106158535867641e+00,
       5.4379155181771468e+00, -1.4090285134469378e+00,
       5.1946962035415716e+00, -1.4054738892107999e+00,
       4.6166612378743679e+00, -1.4434388062938803e+00,
       3.7568457867327223e+00, -1.4910387949420196e+00,
       3.2392029298424836e+00, -1.6046570454063986e+00,
       3.0629868523482351e+00, -1.7605108687386788e+00,
       3.0489913464241885e+00, -1.8970036413435609e+00,
       3.0912749061985516e+00, -1.9878466459957878e+00,
       3.1365048659715904e+00, -2.0210016647924212e+00,
       3.1691848236770714e+00, -1.9970068036855557e+00,
       3.2292908313677322e+00, -1.9036799814441145e+00,
       3.3283265698256619e+00, -1.7732840262591922e+00,
       3.4122920254659701e+00, -1.6036198221177744e+00,
       3.4026210833599104e+00, -1.4994884087943925e+00,
       3.2470605192741981e+00, -1.4636115927708844e+00,
       3.0785510612832256e+00, -1.5421161775263039e+00,
       2.9854182460702479e+00, -1.6903596505142851e+00,
       3.0149867388940392e+00, -1.8701959263866377e+00,
       3.0751510638192152e+00, -2.0068286873228520e+00,
       3.1971116519145424e+00, -2.1040276595053515e+00,
       3.3070612376593909e+00, -2.1072502661417882e+00,
       3.5288181123358195e+00, -2.0796420005743799e+00,
       3.9760337215091126e+00, -2.0198893340699984e+00,
       4.8481979442680778e+00, -1.9817777986719800e+00,
       5.9915074806451596e+00, -1.9707360389769131e+00,
       6.6851557846117871e+00, -1.8696460771323440e+00,
       6.8884748936330453e+00, -1.7668103857804462e+00,
       6.6084702178188115e+00, -1.6627886713000832e+00,
       6.3998993650089853e+00, -1.6732378184122378e+00,
       6.2523627042425254e+00, -1.7779931081095657e+00,
       6.0951809374494106e+00, -1.9032501260565058e+00,
       5.7941965147751624e+00, -1.9907108268035185e+00,
       5.4406534698832836e+00, -2.0938985542829345e+00,
       4.8630011588951385e+00, -2.0917355330807026e+00,
       4.3720511297948121e+00, -2.1004251405280083e+00,
       4.0969481932919090e+00, -2.1343587949309368e+00,
       4.0470832253785645e+00, -2.2363985850967363e+00,
       4.0460210303728488e+00, -2.3123453524218522e+00,
       4.1115207808027403e+00, -2.3723048103766651e+00,
       4.1428030574197594e+00, -2.3824701319832657e+00,
       4.2434029789003240e+00, -2.4087552203757716e+00,
       4.2246902137777482e+00, -2.3438016064903073e+00,
       4.2169522880555057e+00, -2.2569449659342040e+00,
       4.3456104033471314e+00, -2.1951096610679079e+00,
       4.6525203534173434e+00, -2.1447474881800188e+00,
       5.0531040283719912e+00, -2.0345009096931399e+00,
       5.5290702526957132e+00, -1.8685323922028187e+00,
       6.2619749508955538e+00, -1.6944167514187960e+00,
       7.4075816625468631e+00, -1.5767810793806480e+00,
       8.7352747287842298e+00, -1.4654506450999589e+00,
       1.0166984521352690e+01, -1.3321446846893474e+00,
       7.2131737033136760e+00, -5.7863463790711145e-01,
       1.0089099225482999e+01, -8.7130484949024067e-01,
       9.8160557678530971e+00, -1.0226473324467473e+00,
       7.9762978226840646e+00, -1.0759262172582464e+00,
       6.4669127356111948e+00, -1.1512894818242059e+00,
       5.5143144303021501e+00, -1.2758609858346137e+00,
       4.9821560151234996e+00, -1.4812863515553172e+00,
       4.3886719889551538e+00, -1.5422360302594136e+00,
       4.0526356524975018e+00, -1.5537440494696324e+00,
       4.0218253611354271e+00, -1.5578194946981609e+00,
       3.9955011630551094e+00, -1.5829926753280632e+00,
       3.6587501516266183e+00, -1.6129939754388523e+00,
       3.2940916271912450e+00, -1.7250287785876655e+00,
       3.0697215999252365e+00, -1.8601556926882594e+00,
       3.0821669486461585e+00, -2.0404691745665269e+00,
       3.1587558593365075e+00, -2.1881762042877799e+00,
       3.2261286576911474e+00, -2.2803371333905149e+00,
       3.2945933411394082e+00, -2.3497252508576167e+00,
       3.3158324117650966e+00, -2.3346596260230710e+00,
       3.3161797245535389e+00, -2.2488441396208212e+00,
       3.2802007689329145e+00, -2.1061196805602425e+00,
       3.1988115578514447e+00, -1.9547985393755962e+00,
       3.1247625090893782e+00, -1.8661175411115942e+00,
       3.0559668197434280e+00, -1.8336682108431654e+00,
       3.0513401383746013e+00, -1.9030402495070433e+00,
       3.1110193517443054e+00, -2.0587628063013779e+00,
       3.2021451929643088e+00, -2.2339302421735434e+00,
       3.3310824179624863e+00, -2.4036045682552816e+00,
       3.4453836393807631e+00, -2.5052548798807566e+00,
       3.5650786923262969e+00, -2.5389363766745903e+00,
       3.7521652856302521e+00, -2.5134530493216953e+00,
       4.0538884002270823e+00, -2.3918876714373285e+00,
       4.5376292213436606e+00, -2.2658052256634420e+00,
       5.2527427563123892e+00, -2.1525945805280182e+00,
       5.9866540169771820e+00, -2.0597680429807301e+00,
       6.5426211266137457e+00, -2.0359852133337806e+00,
       6.5641111201038811e+00, -2.0104956262325082e+00,
       6.2084430511108843e+00, -2.0019901568792671e+00,
       5.8262005350359667e+00, -2.0605060427397959e+00,
       5.3996131755110772e+00, -2.1311968035292832e+00,
       4.8540364531428715e+00, -2.1363079118892623e+00,
       4.4385923556644302e+00, -2.1642617282089249e+00,
       4.1308557396005412e+00, -2.1864471728981401e+00,
       4.0481004768291431e+00, -2.2880872418340483e+00,
       3.9614299020277595e+00, -2.3585814480123735e+00,
       4.0196540286644957e+00, -2.4960567908676441e+00,
       4.0632428443844928e+00, -2.5952967775651921e+00,
       4.1080913658680078e+00, -2.6691932741379407e+00,
       4.1458769809800966e+00, -2.7163384302719060e+00,
       4.1019624225032256e+00, -2.6825982624675047e+00,
       4.0844254769707407e+00, -2.6337948945068219e+00,
       4.0885093613218420e+00, -2.5609771873124076e+00,
       4.1803872735748513e+00, -2.4858116019509975e+00,
       4.3509679845966946e+00, -2.3762206928564416e+00,
       4.6197529703258713e+00, -2.2436706827911950e+00,
       5.0565559529736506e+00, -2.1082105687441173e+00,
       5.4420155216654997e+00, -1.8559030442542632e+00,
       6.1073063173389270e+00, -1.6493953566377260e+00,
       7.3667941209546841e+00, -1.5336866653198602e+00,
       8.6479501639143361e+00, -1.3872129977466952e+00,
       6.8682473186049080e+00, -6.7018883870123946e-01,
       8.7598733358910295e+00, -9.5100701008159405e-01,
       7.8377046365151433e+00, -1.0920354326309429e+00,
       6.2547072930438725e+00, -1.1573372750710056e+00,
       5.1750515319330841e+00, -1.2922706535911319e+00,
       4.3757141329798355e+00, -1.4663941653255961e+00,
       3.7231463412073897e+00, -1.5944685541987369e+00,
       3.3835695612994381e+00, -1.6877845974890138e+00,
       3.2441811789409236e+00, -1.7219978991333489e+00,
       3.2799381426191054e+00, -1.7286825078083039e+00,
       3.3568019481260221e+00, -1.7769368559313012e+00,
       3.2851672073301712e+00, -1.8531639583910078e+00,
       3.2222833811254463e+00, -2.0140200279491105e+00,
       3.2263204586295924e+00, -2.1886509547208712e+00,
       3.3121196504069506e+00, -2.3705340785106941e+00,
       3.4700018663211241e+00, -2.5584760012062020e+00,
       3.5736000328709525e+00, -2.6878253534430741e+00,
       3.7192913668265777e+00, -2.8249669519486384e+00,
       3.7885414842033933e+00, -2.8525488822237284e+00,
       3.7122186049976187e+00, -2.7321415130899398e+00,
       3.5872658327231846e+00, -2.5714944810120621e+00,
       3.4246570238503304e+00, -2.3968649158850983e+00,
       3.2884511295994572e+00, -2.2761240171541326e+00,
       3.2637913986721201e+00, -2.2628200804403815e+00,
       3.2761239283094072e+00, -2.3102908532507160e+00,
       3.3892150788780953e+00, -2.4597218662134566e+00,
       3.5379775291291495e+00, -2.6618486069791731e+00,
       3.7191052742684430e+00, -2.8618236259840728e+00,
       3.8721663335288627e+00, -2.9882003340320891e+00,
       4.0121805597233733e+00, -3.0437271725998305e+00,
       4.1610899182574315e+00, -3.0079112791463514e+00,
       4.3444301812544923e+00, -2.8835090516757744e+00,
       4.7168572949957905e+00, -2.7181774233128841e+00,
       5.0757701512458189e+00, -2.5222245391124329e+00,
       5.6975211214342973e+00, -2.4449397153744283e+00,
       6.2191985604984596e+00, -2.4424880159743085e+00,
       6.3747252518503315e+00, -2.4412550769845511e+00,
       5.9773646419553161e+00, -2.4261068252642168e+00,
       5.1563840056085315e+00, -2.3255767656206170e+00,
       4.4322758640565008e+00, -2.2188218360981802e+00,
       4.1902265634657629e+00, -2.2753848513029764e+00,
       4.1031193835012436e+00, -2.3634346252831842e+00,
       4.1167436799027506e+00, -2.4482041999513924e+00,
       4.1942624134885920e+00, -2.5518724603405207e+00,
       4.1952541982513747e+00, -2.6065496600265945e+00,
       4.1720472605957042e+00, -2.6633493166761313e+00,
       4.1907344159041875e+00, -2.7492329497184582e+00,
       4.3114746228765384e+00, -2.9004239605452593e+00,
       4.3528111790556858e+00, -2.9655095077147822e+00,
       4.3854268633748363e+00, -2.9989845297519468e+00,
       4.3374536595967825e+00, -2.9514195922481195e+00,
       4.3114654602362208e+00, -2.8726941288834573e+00,
       4.3632911234628722e+00, -2.7795221308979730e+00,
       4.5101686416108313e+00, -2.7002488900163115e+00,
       4.6181026103398644e+00, -2.5351625575447030e+00,
       4.7987842007839028e+00, -2.3391997380118759e+00,
       5.1463253194402299e+00, -2.1158104499590196e+00,
       5.5113878848664841e+00, -1.8244155974125507e+00,
       6.3760998867761955e+00, -1.6320830073504109e+00,
       7.5644416270226849e+00, -1.4712271849558225e+00,
       6.5202034765789003e+00, -7.6501464666088570e-01,
       7.4827903568147978e+00, -1.0639457684386882e+00,
       6.0230842230226012e+00, -1.1585927004551246e+00,
       4.9852596683947104e+00, -1.2956212627232262e+00,
       4.1074859959832919e+00, -1.4557413603411380e+00,
       3.5210041833650583e+00, -1.6290228408907843e+00,
       3.1694054653710464e+00, -1.7747025585940128e+00,
       3.1012226076625864e+00, -1.9063397794161194e+00,
       3.1213807183485427e+00, -1.9791245852297019e+00,
       3.1703043893873595e+00, -2.0116074996674982e+00,
       3.3269535734933031e+00, -2.1229954608248791e+00,
       3.3921107467777984e+00, -2.2361717385476929e+00,
       3.4871947366121638e+00, -2.4434495991832628e+00,
       3.6378547308030851e+00, -2.6747882866420958e+00,
       3.8319052698461218e+00, -2.9118281308031952e+00,
       4.0623943975858401e+00, -3.1591324829438414e+00,
       4.2969392331605558e+00, -3.3983981916703483e+00,
       4.4663127231495343e+00, -3.5612018287350300e+00,
       4.5341694299901896e+00, -3.6013176744255984e+00,
       4.5134156410687778e+00, -3.5361596419688475e+00,
       4.3109404552328670e+00, -3.3337690907984463e+00,
       4.0545993939745735e+00, -3.1054864216479974e+00,
       3.8001824150450196e+00, -2.8865168736192577e+00,
       3.7058221684878836e+00, -2.7937924047034510e+00,
       3.6960474050987928e+00, -2.7982531911266957e+00,
       3.8028957695520265e+00, -2.9118250941373836e+00,
       4.0584098420871904e+00, -3.1786196116139620e+00,
       4.3077264867137082e+00, -3.4037001496230950e+00,
       4.5693056343347669e+00, -3.5920697666917141e+00,
       4.6893724175533098e+00, -3.6295309813138967e+00,
       4.7685437698445163e+00, -3.5652702251527786e+00,
       4.8716830111562572e+00, -3.4422064736266678e+00,
       5.0655915787725325e+00, -3.2638593952615977e+00,
       5.2900442218436492e+00, -3.0397924236707103e+00,
       5.5063554268235171e+00, -2.8479670499115750e+00,
       5.8866573242496720e+00, -2.8464059016823171e+00,
       5.8029113603474354e+00, -2.7727809732502111e+00,
       5.1297034351614110e+00, -2.5824536411327288e+00,
       4.6369557416381877e+00, -2.5291999656524791e+00,
       4.2762548829638076e+00, -2.4947286272238678e+00,
       4.1648432167095368e+00, -2.5563106318015896e+00,
       4.1584150753014395e+00, -2.6056043710005827e+00,
       4.3090265782952688e+00, -2.6756222127165605e+00,
       4.4634248550193369e+00, -2.7282491371597435e+00,
       4.4091306906892589e+00, -2.6787884559637440e+00,
       4.3169377101093369e+00, -2.6736881509641983e+00,
       4.2945190117968304e+00, -2.7421519318693472e+00,
       4.3974854503154575e+00, -2.8877835537913534e+00,
       4.5106544435938973e+00, -3.0201094630983345e+00,
       4.5843494882909290e+00, -3.0969475147543193e+00,
       4.6797504768500966e+00, -3.1438531317662486e+00,
       4.7522026416094878e+00, -3.1216819024943971e+00,
       4.8574271863050003e+00, -3.0881359458954036e+00,
       4.8496680553340914e+00, -2.9681143158727239e+00,
       5.0308498151954479e+00, -2.9200108399673925e+00,
       5.0045878641655985e+00, -2.6797922905869416e+00,
       5.1172614132170642e+00, -2.4064998958522810e+00,
       5.4626441085168240e+00, -2.1146481302433204e+00,
       6.0322918543947717e+00, -1.8051650768428174e+00,
       7.1820857273964460e+00, -1.6225963573861322e+00,
       6.1283226971332310e+00, -8.7012286507162573e-01,
       6.1583041904918510e+00, -1.1627617024031311e+00,
       5.1136588493171136e+00, -1.3101170379522062e+00,
       4.0126550125882847e+00, -1.4247933628896248e+00,
       3.4176822336274459e+00, -1.6176832141001882e+00,
       3.1288688014463832e+00, -1.8241810350762524e+00,
       3.1216222793260049e+00, -2.0354453460899347e+00,
       3.2086141968532260e+00, -2.2043031499431400e+00,
       3.3202994743434480e+00, -2.3342624418675761e+00,
       3.4684098688696490e+00, -2.4599907019777016e+00,
       3.6663059503036797e+00, -2.6312194001472937e+00,
       3.8027001818238753e+00, -2.7913880775285569e+00,
       3.9785730890613431e+00, -3.0116926393898016e+00,
       4.2979084680626416e+00, -3.3486011190038192e+00,
       4.6990441187497316e+00, -3.7413496599457172e+00,
       5.0702517872866020e+00, -4.1072255899723888e+00,
       5.3874040576105919e+00, -4.4413460786357177e+00,
       5.6210293413029477e+00, -4.6926194201096552e+00,
       5.7514744084390932e+00, -4.8181036480384201e+00,
       5.6774295967648358e+00, -4.7153115535068482e+00,
       5.3766070020905765e+00, -4.4195771571106093e+00,
       5.0224880577089834e+00, -4.0856231429073828e+00,
       4.6640759364471078e+00, -3.7229224357764932e+00,
       4.4007485100888770e+00, -3.4250462236392387e+00,
       4.2595269663826070e+00, -3.2596189781092240e+00,
       4.2773588256780641e+00, -3.2394702870944134e+00,
       4.4471041836331366e+00, -3.3776448730362394e+00,
       4.6489606424319039e+00, -3.5379287564896988e+00,
       4.8138817075101237e+00, -3.6330370798922256e+00,
       4.9026801543253562e+00, -3.6546737990086227e+00,
       5.0516080909549288e+00, -3.6762538927197350e+00,
       5.1645662394455023e+00, -3.6299395065306843e+00,
       5.4460454381618293e+00, -3.6061991765267667e+00,
       5.6439745610842671e+00, -3.4747549265775715e+00,
       5.6192947382905007e+00, -3.2523207608698659e+00,
       5.6870423186977987e+00, -3.1360725865852586e+00,
       5.4295692810355369e+00, -2.9762431381916237e+00,
       5.1214969217970179e+00, -2.8885951496640634e+00,
       4.8876463828909458e+00, -2.8880521821857350e+00,
       4.6227091089499011e+00, -2.8277436861955936e+00,
       4.4646584810199261e+00, -2.7989083055321262e+00,
       4.4560213751696702e+00, -2.7675387658529251e+00,
       4.5099205940996780e+00, -2.7276696788131689e+00,
       4.4431854475336072e+00, -2.5940362098100591e+00,
       4.2691892592536371e+00, -2.4627854763733610e+00,
       4.1111717763805444e+00, -2.3996060870096576e+00,
       4.0377514858970081e+00, -2.4345266312026044e+00,
       4.0892047030926646e+00, -2.5466736787022852e+00,
       4.2734406029109140e+00, -2.7182187502771562e+00,
       4.5143776459719565e+00, -2.8938618641177181e+00,
       4.7750001494591041e+00, -3.0555594958707122e+00,
       5.0199642462927949e+00, -3.1497814878699884e+00,
       5.1908881314915361e+00, -3.1654239390075816e+00,
       5.1229155869648935e+00, -3.0908848253071906e+00,
       5.2198154883989041e+00, -3.0671683974219377e+00,
       5.4264353852057665e+00, -3.0001866227201650e+00,
       5.3721021850473178e+00, -2.6888393808549993e+00,
       5.7602382000611154e+00, -2.3961129260115803e+00,
       6.4065772872507782e+00, -2.0926674599185939e+00,
       7.5892837443880889e+00, -1.8660271767127206e+00,
       5.6404278678146476e+00, -9.8886393991675314e-01,
       5.5234617185538815e+00, -1.3009122063768179e+00,
       4.2757104299992204e+00, -1.4386754615819177e+00,
       3.5280780563046981e+00, -1.6276159406810522e+00,
       3.1878663279334960e+00, -1.8566471768050952e+00,
       3.1662726324523307e+00, -2.0926797868638949e+00,
       3.3177225464341138e+00, -2.3671778168675219e+00,
       3.5099999401781981e+00, -2.6111444191654343e+00,
       3.7917891054915454e+00, -2.8727066596794932e+00,
       4.0698321220402027e+00, -3.1048312702657874e+00,
       4.3323889316961681e+00, -3.3393624144512741e+00,
       4.5778898533943053e+00, -3.5763774451560497e+00,
       4.8199145554454832e+00, -3.7996437148593993e+00,
       5.2531566147699342e+00, -4.1870748311842672e+00,
       5.7563227320889006e+00, -4.6837345690335770e+00,
       6.2976973329088368e+00, -5.2518945953015050e+00,
       6.7286182175826372e+00, -5.7428019210561798e+00,
       6.8841164855923749e+00, -5.9719909016449373e+00,
       6.9780521031868235e+00, -6.0764185543292601e+00,
       6.9355805487719824e+00, -6.0292353628713231e+00,
       6.9024987103584010e+00, -5.9065326334658526e+00,
       6.4943074361584570e+00, -5.4027469388871792e+00,
       5.5177719500379592e+00, -4.4022846622145382e+00,
       4.7088778714597241e+00, -3.6170645218516557e+00,
       4.3600563459584114e+00, -3.2262908290076351e+00,
       4.1695524457477928e+00, -3.0210018542187069e+00,
       4.1406222374254078e+00, -2.9555064263330029e+00,
       4.1757673505009203e+00, -2.9637352239108874e+00,
       4.1754472456825047e+00, -2.9399097706192436e+00,
       4.1758753601127481e+00, -2.9060143004890722e+00,
       4.2653436208842974e+00, -2.9099777990231397e+00,
       4.4430884131180646e+00, -2.9648775102761871e+00,
       4.6980954560982777e+00, -3.0436018054256064e+00,
       4.9975839160847322e+00, -3.0900574369263221e+00,
       5.0399443647425377e+00, -2.9680156793868750e+00,
       4.9668081766828527e+00, -2.8350048401798458e+00,
       4.8301632062245874e+00, -2.7451706111501322e+00,
       4.8822956432918927e+00, -2.7883145187727556e+00,
       5.0254021720646325e+00, -2.8952576527638803e+00,
       5.0981562209295932e+00, -2.9486394890255405e+00,
       4.9446219132060616e+00, -2.8642592161013991e+00,
       4.6902347331746359e+00, -2.7066224831321755e+00,
       4.3632260617364693e+00, -2.4591584948875700e+00,
       4.1322109699463070e+00, -2.2767672206959033e+00,
       3.8313772948566354e+00, -2.0812951804441777e+00,
       3.6427315008838335e+00, -1.9929984860948615e+00,
       3.5821139202961119e+00, -2.0237704163887442e+00,
       3.6290626308681535e+00, -2.1179996438515380e+00,
       3.7701803272332510e+00, -2.2477580290044590e+00,
       3.9705363657021402e+00, -2.4051054623501944e+00,
       4.1909503267092676e+00, -2.5552954053710315e+00,
       4.4768578039325986e+00, -2.6888255824138430e+00,
       4.7374001227725682e+00, -2.8002296746457551e+00,
       4.8048293357184289e+00, -2.8058651587938170e+00,
       4.9473870008815179e+00, -2.8591560055267373e+00,
       5.4436790186985604e+00, -2.9970058680510827e+00,
       5.9246820956396533e+00, -2.9339818428637638e+00,
       6.3631819274291717e+00, -2.6278400105144337e+00,
       7.2695770108024043e+00, -2.3737223203669671e+00,
       8.3991993079942642e+00, -2.0896277863141415e+00,
       5.3270386089631758e+00, -1.0970504540142720e+00,
       4.7587655751279136e+00, -1.3800145729256468e+00,
       3.8034764004508257e+00, -1.5666857087785484e+00,
       3.3433437058701054e+00, -1.8309337849447813e+00,
       3.2205485915306196e+00, -2.1157369827232437e+00,
       3.3676175918741089e+00, -2.4089924226993333e+00,
       3.6441769677796736e+00, -2.7692802713052336e+00,
       4.0579827582867383e+00, -3.1816784654144921e+00,
       4.4931554162989773e+00, -3.5645958756814773e+00,
       4.9934700486990495e+00, -3.9786494920891609e+00,
       5.3919849847550489e+00, -4.2918210357317825e+00,
       5.6997125957954857e+00, -4.5214761598307245e+00,
       5.9898878120014682e+00, -4.7594391161335743e+00,
       6.2421013463150432e+00, -5.0147400694833726e+00,
       6.7836680466903241e+00, -5.5730532387039791e+00,
       7.3452581771447294e+00, -6.2066160790959870e+00,
       7.6503415761845233e+00, -6.6413259369265010e+00,
       7.5160218688776865e+00, -6.6122787548863320e+00,
       7.3360762805796433e+00, -6.4395857593254142e+00,
       7.0351029369564566e+00, -6.0628062709578279e+00,
       6.5874157505653068e+00, -5.5212345334971635e+00,
       5.7821855170030085e+00, -4.6872716678058097e+00,
       4.9065302978718446e+00, -3.8116157080439810e+00,
       4.3172879952088445e+00, -3.2052253175502323e+00,
       3.9524625330935943e+00, -2.8125395153311317e+00,
       3.7778407405216194e+00, -2.6021130844532827e+00,
       3.6660740285331301e+00, -2.4541976541645085e+00,
       3.5734201091588820e+00, -2.3540471687959568e+00,
       3.5225857127246276e+00, -2.2807422028119593e+00,
       3.5058113202102472e+00, -2.2392510540362505e+00,
       3.5141728656329390e+00, -2.2150030181623523e+00,
       3.6211073934612785e+00, -2.2452327647519570e+00,
       3.8341178352442440e+00, -2.3108630620609918e+00,
       4.0614518656451741e+00, -2.3616850727393479e+00,
       4.1828395318755893e+00, -2.3565259161991139e+00,
       4.2040975811427028e+00, -2.3106777391626614e+00,
       4.3491156729097193e+00, -2.3496260452028994e+00,
       4.7956063684104899e+00, -2.5594543907990124e+00,
       5.5229059074148008e+00, -2.8724525332191706e+00,
       6.0875454435983816e+00, -3.0981884971024054e+00,
       5.7040365564108262e+00, -2.8727422864553485e+00,
       4.9255562027109212e+00, -2.4863548697998072e+00,
       4.2536472357844382e+00, -2.1409288494987693e+00,
       3.7993743743006441e+00, -1.9080133824342556e+00,
       3.4950345150436597e+00, -1.7677739454550403e+00,
       3.2565997352465219e+00, -1.6695238377435950e+00,
       3.1586782026385647e+00, -1.6728789662013397e+00,
       3.1337768032413420e+00, -1.7200530983188838e+00,
       3.2222727545279417e+00, -1.8075575019200270e+00,
       3.3265374867004391e+00, -1.9055649858936239e+00,
       3.4465519968518818e+00, -2.0127744403760408e+00,
       3.5935728472529411e+00, -2.1051622250516346e+00,
       3.8266407011834755e+00, -2.2165385930038526e+00,
       4.0564118139682384e+00, -2.3278750842444000e+00,
       4.4237113592701371e+00, -2.4764109668071046e+00,
       5.1284434725511492e+00, -2.6987916197825368e+00,
       6.0376565191643783e+00, -2.7965074010189550e+00,
       6.8598600650066359e+00, -2.6642288124444722e+00,
       8.1609524867444545e+00, -2.5042922826970728e+00,
       9.2077451385923865e+00, -2.1678557974800090e+00,
       4.8560814471255833e+00, -1.1801342109681190e+00,
       4.2743963573484320e+00, -1.4653488550321661e+00,
       3.6401747843054357e+00, -1.7382149489070946e+00,
       3.3643973366275164e+00, -2.0689879468931673e+00,
       3.3977656032107064e+00, -2.4015579719117888e+00,
       3.7067028695100768e+00, -2.8026863507581665e+00,
       4.2391197428764098e+00, -3.3541362671432702e+00,
       4.9014039584927893e+00, -3.9519336069024020e+00,
       5.7005866592692920e+00, -4.6138917802488351e+00,
       6.3808615252125556e+00, -5.1501353792452287e+00,
       6.8215800726530151e+00, -5.4472323227214492e+00,
       6.7895645936745401e+00, -5.3413982355600425e+00,
       6.8181051238856138e+00, -5.3261039766777696e+00,
       6.6713139062977245e+00, -5.2789560616096320e+00,
       7.0339068705614531e+00, -5.7423290461169483e+00,
       7.5992515082270833e+00, -6.4186065507205159e+00,
       7.7293085342500998e+00, -6.6534904173289497e+00,
       7.1599003306219888e+00, -6.1676719284025685e+00,
       6.2868195580635149e+00, -5.3053650861097674e+00,
       5.6761354722468793e+00, -4.6693906830372311e+00,
       5.2330214662330388e+00, -4.1738929289928484e+00,
       4.8600407494908566e+00, -3.7387839433583179e+00,
       4.4515340589249792e+00, -3.3045067131766017e+00,
       4.0707531868620306e+00, -2.9246507036866878e+00,
       3.8064191100049398e+00, -2.6459442181340549e+00,
       3.6377080523438443e+00, -2.4318518882796893e+00,
       3.4667061893454147e+00, -2.2247696929086382e+00,
       3.2828356396698468e+00, -2.0389930703139698e+00,
       3.1322278991604353e+00, -1.9094126302234948e+00,
       3.0707431359616297e+00, -1.8358050010926310e+00,
       3.0639803315718948e+00, -1.7998675696304109e+00,
       3.1260326538026058e+00, -1.8083756372718542e+00,
       3.2615373400266083e+00, -1.8466997465041104e+00,
       3.4741786929194984e+00, -1.8957715566553803e+00,
       3.6743019990106052e+00, -1.9351535758918337e+00,
       3.9940569780086776e+00, -2.0345735459487115e+00,
       4.5221318789916287e+00, -2.2348563516158464e+00,
       5.4505130112460529e+00, -2.6127257294969559e+00,
       6.6403901438631161e+00, -3.0952106884529216e+00,
       7.1650850938219905e+00, -3.2067268091468004e+00,
       6.2083698310537079e+00, -2.7180414978341512e+00,
       5.0779835926036521e+00, -2.1965061093612288e+00,
       4.3098074181386794e+00, -1.8654705638315949e+00,
       3.7860857639123027e+00, -1.6637816332763402e+00,
       3.3738614216812515e+00, -1.5305928992880937e+00,
       3.0617046681060884e+00, -1.4570465352486404e+00,
       2.8906966213785301e+00, -1.4348457797119369e+00,
       2.8512531505292347e+00, -1.4793136660170843e+00,
       2.8500479653835020e+00, -1.5176423234353258e+00,
       2.8525699739698993e+00, -1.5593720174890804e+00,
       2.9049443655026668e+00, -1.6225973847794724e+00,
       2.9935579291162147e+00, -1.6920335215264128e+00,
       3.1614513421893089e+00, -1.7804586552566135e+00,
       3.3968910830615950e+00, -1.8879779592275721e+00,
       3.8660655646632742e+00, -2.0785118931126494e+00,
       4.5463698411095708e+00, -2.2590266753748582e+00,
       5.6533502370504349e+00, -2.4382110581188954e+00,
       6.7355101976337615e+00, -2.3894746817038111e+00,
       8.5366596743349881e+00, -2.4101048117478032e+00,
       9.9193505096308066e+00, -2.1929544509036689e+00,
       4.4773050096050415e+00, -1.2969724949968926e+00,
       3.9667550719459133e+00, -1.5972251391191683e+00,
       3.5152869384839582e+00, -1.9103982967014757e+00,
       3.4683022410264890e+00, -2.3192021040773998e+00,
       3.7208611005102785e+00, -2.7779854560095742e+00,
       4.3053589998548762e+00, -3.3886701055374453e+00,
       5.1285311759520251e+00, -4.1643436538295511e+00,
       6.0852475790792377e+00, -4.9922542927446143e+00,
       6.8736587249231906e+00, -5.6241908874977025e+00,
       7.2954346020855985e+00, -5.8824174676505017e+00,
       7.2408922477951769e+00, -5.7069004558530967e+00,
       6.9819416554148308e+00, -5.3626868476148992e+00,
       6.7176919600713889e+00, -5.1087776169239527e+00,
       6.5647260410190524e+00, -5.0887984475408050e+00,
       6.7914713660496817e+00, -5.4517811810685384e+00,
       7.4671077047642527e+00, -6.1689764374048579e+00,
       7.2488726529327909e+00, -6.0237964528509220e+00,
       6.1046302724588157e+00, -5.0139644948303577e+00,
       5.1873874863468021e+00, -4.1464696801908776e+00,
       4.6872158606701380e+00, -3.6412422866872594e+00,
       4.4744741736111999e+00, -3.3779183488845086e+00,
       4.4351709326986253e+00, -3.2685726268140520e+00,
       4.3962251664326084e+00, -3.1810517395172968e+00,
       4.2451967020038950e+00, -3.0281913498896293e+00,
       4.0728134980037485e+00, -2.8403998634001910e+00,
       3.8555552493849090e+00, -2.5777077281498992e+00,
       3.5323201208437527e+00, -2.2512938763266854e+00,
       3.1910158865948599e+00, -1.9435016596498456e+00,
       2.9717609991493390e+00, -1.7478376326311718e+00,
       2.8485084047291513e+00, -1.6364138681493343e+00,
       2.8346849489381420e+00, -1.5835982180140604e+00,
       2.8815778594854291e+00, -1.5766418651596321e+00,
       3.0166194834396940e+00, -1.5972947974164677e+00,
       3.2497316193041872e+00, -1.6449189401749056e+00,
       3.6563861719778101e+00, -1.7474320765386475e+00,
       4.2566765262577837e+00, -1.9549044704067990e+00,
       5.1498983854716904e+00, -2.2936946499998800e+00,
       6.0644290540529564e+00, -2.6655159190002666e+00,
       6.4863656839937152e+00, -2.7959827165519608e+00,
       6.1961379536626398e+00, -2.5533162484369303e+00,
       5.5552608723126307e+00, -2.1980764039756036e+00,
       4.9818886946722580e+00, -1.8960769573523393e+00,
       4.3877900811262629e+00, -1.6522534795106074e+00,
       3.9013892411316422e+00, -1.4899077021207459e+00,
       3.4310747407872584e+00, -1.3748043425022984e+00,
       3.0743038982391329e+00, -1.3118980216274767e+00,
       2.8807832739124120e+00, -1.3041608246950644e+00,
       2.7586658400884674e+00, -1.3170481636200899e+00,
       2.7027417918805638e+00, -1.3443568601482034e+00,
       2.6817917350616263e+00, -1.3845097815612255e+00,
       2.6566840905325528e+00, -1.4133743215203445e+00,
       2.6880202714613541e+00, -1.4449271597630484e+00,
       2.8028823041673410e+00, -1.5140252077268384e+00,
       2.9777040759619982e+00, -1.5918867810938695e+00,
       3.3454842276064509e+00, -1.7187569920203021e+00,
       3.8990484717786540e+00, -1.8313610310496675e+00,
       4.8867443474861005e+00, -1.9803432831479135e+00,
       6.1808909831864716e+00, -2.0547719765039458e+00,
       7.7936504315642976e+00, -2.0634745750468064e+00,
       9.8185166051894992e+00, -2.0625113456979633e+00,
       4.0762974132923500e+00, -1.4377528823354111e+00,
       3.7096020077740945e+00, -1.7707252490395726e+00,
       3.4994690906618557e+00, -2.1418607531253899e+00,
       3.6301934373657803e+00, -2.5874025774165892e+00,
       4.1760481687046855e+00, -3.2396885793203816e+00,
       5.1139270430002552e+00, -4.1523377048397956e+00,
       6.3251150170021262e+00, -5.2492253547963674e+00,
       7.0063911674015253e+00, -5.7930005863342346e+00,
       7.1197014523405375e+00, -5.8207870610787502e+00,
       6.8543503545326985e+00, -5.4795273710802874e+00,
       6.6750869994034741e+00, -5.1839711117339577e+00,
       6.6106795865836423e+00, -4.9818371105929451e+00,
       6.5275311115303039e+00, -4.8800259264315482e+00,
       6.4566736693958688e+00, -4.9145563682538240e+00,
       6.7523287692463505e+00, -5.2823148647535563e+00,
       7.1308722555376205e+00, -5.6676863567369899e+00,
       6.3837052914917001e+00, -5.0563437327562122e+00,
       5.3658051087611529e+00, -4.1648426158486922e+00,
       4.7087188346811910e+00, -3.5737655261719588e+00,
       4.3781905864293051e+00, -3.2659685833600371e+00,
       4.2960323903134485e+00, -3.1547594257241225e+00,
       4.4067567854725738e+00, -3.2013791941521328e+00,
       4.5908858608549599e+00, -3.3336873885210609e+00,
       4.6636854389951461e+00, -3.3919301565102216e+00,
       4.5736183895981739e+00, -3.2693194889890060e+00,
       4.2690271724267763e+00, -2.9202460095582556e+00,
       3.7436386738967200e+00, -2.4112357860101219e+00,
       3.2454353714768747e+00, -1.9587718500686981e+00,
       2.9237893008995854e+00, -1.6741813130698955e+00,
       2.7819618659950764e+00, -1.5278329209844939e+00,
       2.7841909194209893e+00, -1.4653932194980201e+00,
       2.8533036072009859e+00, -1.4470560508492205e+00,
       2.9981757285927868e+00, -1.4500692472804744e+00,
       3.2908190924342851e+00, -1.4848540126416310e+00,
       3.8064440556539378e+00, -1.6047871550667909e+00,
       4.4876804739288971e+00, -1.8316931115473933e+00,
       5.2225949655596899e+00, -2.1167472559373426e+00,
       5.4765778238794658e+00, -2.2541139520777245e+00,
       5.1224595546777580e+00, -2.1163379613443727e+00,
       4.7407792762711525e+00, -1.9068376621887628e+00,
       4.5721285737441848e+00, -1.7497488590176702e+00,
       4.4233929612215110e+00, -1.6063497968172920e+00,
       4.2838013104152850e+00, -1.4895720877248528e+00,
       4.0697908702767167e+00, -1.4036553806049537e+00,
       3.7247167094081681e+00, -1.3119208363731483e+00,
       3.3801858205405027e+00, -1.2556786022498068e+00,
       3.1138728346488120e+00, -1.2266037137871226e+00,
       2.9123623619027832e+00, -1.2238136303347535e+00,
       2.7612635987082976e+00, -1.2301477104972081e+00,
       2.6577606175147026e+00, -1.2468790440301090e+00,
       2.5977850514732608e+00, -1.2753716345554700e+00,
       2.6008798234347763e+00, -1.3117643884572561e+00,
       2.6637996365477705e+00, -1.3586299876371666e+00,
       2.7887742897806995e+00, -1.4160990554509254e+00,
       3.0269541997895768e+00, -1.4854594442392957e+00,
       3.4124256948025655e+00, -1.5534999097330697e+00,
       4.2050552473321066e+00, -1.6577714919701423e+00,
       5.4231679211556427e+00, -1.7542415726506329e+00,
       6.8651740396157495e+00, -1.7903297005272427e+00,
       8.9123772787639819e+00, -1.8670248249775152e+00,
       3.8100695015587052e+00, -1.6287278073993030e+00,
       3.5656159977151964e+00, -2.0012893712666182e+00,
       3.5452553991684108e+00, -2.3882426942148887e+00,
       3.9306330357977655e+00, -2.9350540108136958e+00,
       4.8285829800565088e+00, -3.8546516667492621e+00,
       6.2311204668566953e+00, -5.1618760061224318e+00,
       7.2164607189495538e+00, -6.0355664115666556e+00,
       7.0669208125651179e+00, -5.8322474214655724e+00,
       6.5869014779006996e+00, -5.3316295094045687e+00,
       6.3083147894725142e+00, -4.9529729931530264e+00,
       6.1985349804027052e+00, -4.7280809064761442e+00,
       6.2545749514652114e+00, -4.6851599795029761e+00,
       6.2858732240890136e+00, -4.6790604751977440e+00,
       6.4654003364235750e+00, -4.8490502523176788e+00,
       6.6811806070054791e+00, -5.0544248675142924e+00,
       6.3252293728638129e+00, -4.7741985024245421e+00,
       5.6464875827387822e+00, -4.2122341480113894e+00,
       5.0712171993831099e+00, -3.7221096480131939e+00,
       4.7367835067233850e+00, -3.4632607438430831e+00,
       4.5976027832151596e+00, -3.3624278947718018e+00,
       4.6531469428631542e+00, -3.4098926299286090e+00,
       4.7888876236183515e+00, -3.5259358875856681e+00,
       4.9909080983430236e+00, -3.7092175699738488e+00,
       5.1298646086118938e+00, -3.8292042999750868e+00,
       5.1256767902809193e+00, -3.7604554375754713e+00,
       4.6723476621574447e+00, -3.2455840594398175e+00,
       3.9992042700265906e+00, -2.5600442558993741e+00,
       3.4113455734627514e+00, -1.9963453983110306e+00,
       3.0496698288244355e+00, -1.6497060550388245e+00,
       2.9011569090954903e+00, -1.4612026450741331e+00,
       2.9113994708749358e+00, -1.3751073625412773e+00,
       3.0110741879956837e+00, -1.3437830221340610e+00,
       3.1539474347634631e+00, -1.3188738667514364e+00,
       3.4559260585764675e+00, -1.3264657371889115e+00,
       3.8891746269182166e+00, -1.4086482839884602e+00,
       4.5232880986526460e+00, -1.6048020982070996e+00,
       5.0140451705540503e+00, -1.8127479339217618e+00,
       4.8213810251286748e+00, -1.8422179920409476e+00,
       4.3987402020243138e+00, -1.7444023644302304e+00,
       4.0180690431754567e+00, -1.6024773049642362e+00,
       3.8859986638113937e+00, -1.5020707061243284e+00,
       3.8243212204775929e+00, -1.3976195832852651e+00,
       3.7843946356807661e+00, -1.3328314902019853e+00,
       3.8165977143981000e+00, -1.2969609015046595e+00,
       3.8418505778294265e+00, -1.2725299189021508e+00,
       3.7372915126326589e+00, -1.2293835517910430e+00,
       3.5972142035319963e+00, -1.2016645486712274e+00,
       3.3301854066490497e+00, -1.1712304326671987e+00,
       3.0325632209179272e+00, -1.1544377059561264e+00,
       2.8092278165921134e+00, -1.1670284069677790e+00,
       2.6738203296573935e+00, -1.2000580574139939e+00,
       2.6142853240221813e+00, -1.2225628427044899e+00,
       2.6474579051619620e+00, -1.2634969950500463e+00,
       2.7041676333733773e+00, -1.2972675004738421e+00,
       2.8256035765862748e+00, -1.3447689455466101e+00,
       3.0904943307838129e+00, -1.3844844268470959e+00,
       3.6403571195375233e+00, -1.4437563962548750e+00,
       4.6504900644048623e+00, -1.5289760009903175e+00,
       5.9947212081379764e+00, -1.5935794353467119e+00,
       7.6926694354761711e+00, -1.6385740807342095e+00,
       3.7200411315776467e+00, -1.8241931800348761e+00,
       3.6569243582968585e+00, -2.2942244308957527e+00,
       3.7614687304228061e+00, -2.6948515592873403e+00,
       4.4908622424681228e+00, -3.4811952036986868e+00,
       5.6960537821715738e+00, -4.6417582450389485e+00,
       7.1807306232462258e+00, -5.9938809135447366e+00,
       7.3356923970544994e+00, -6.0929821077610908e+00,
       6.6869633581500230e+00, -5.4324828619526704e+00,
       6.2577995178081975e+00, -4.9116869341043525e+00,
       6.0339691903174204e+00, -4.5781958277053683e+00,
       5.8931231835092044e+00, -4.3542499554279042e+00,
       6.0370124682543018e+00, -4.3994641323584434e+00,
       6.1387374395758956e+00, -4.4590811661002387e+00,
       6.3616620288108345e+00, -4.6294482301354929e+00,
       6.2131026227178801e+00, -4.4948250202240159e+00,
       5.7956387359855803e+00, -4.1348239217345784e+00,
       5.4863905161732456e+00, -3.8623050190845896e+00,
       5.2542328152826174e+00, -3.7046280507292533e+00,
       5.1961016414990446e+00, -3.6993007361191270e+00,
       5.2161930162590613e+00, -3.7907644921792705e+00,
       5.3086645899222900e+00, -3.9498117766368135e+00,
       5.3624302850223380e+00, -4.0692929011226298e+00,
       5.4663289564422382e+00, -4.1976299434548192e+00,
       5.5463990087821262e+00, -4.2683922475601523e+00,
       5.3061188434441666e+00, -3.9552617711036619e+00,
       4.7070866445193289e+00, -3.2623856570838101e+00,
       4.0654917403089827e+00, -2.5295611526063202e+00,
       3.5471098556509131e+00, -1.9617522212048606e+00,
       3.2346811609348265e+00, -1.5946754270041166e+00,
       3.1288928312813740e+00, -1.3951902751711425e+00,
       3.1836589924935423e+00, -1.3015547057547148e+00,
       3.2920560310824500e+00, -1.2426847030824806e+00,
       3.4533729456619513e+00, -1.2041995107234729e+00,
       3.6849236371889686e+00, -1.1782617708416530e+00,
       4.1057493778136847e+00, -1.2433269886331997e+00,
       4.5732613069792691e+00, -1.3731652246128927e+00,
       4.8108068789285872e+00, -1.5212026595827814e+00,
       4.6130024260872702e+00, -1.5778383730751784e+00,
       4.2677104606942953e+00, -1.5711032137163796e+00,
       3.8321135404126765e+00, -1.4767118037507210e+00,
       3.5118758476928273e+00, -1.3840922458554081e+00,
       3.3438117031973782e+00, -1.2964501776583606e+00,
       3.2803874669514812e+00, -1.2256995616135318e+00,
       3.3433680674645405e+00, -1.1989078802476654e+00,
       3.5258023865038126e+00, -1.1843158016258046e+00,
       3.7523682902434357e+00, -1.1722363914791629e+00,
       3.8815268624201194e+00, -1.1577426143273846e+00,
       3.8293796271015621e+00, -1.1420782434576540e+00,
       3.5216732100122958e+00, -1.1293116426916594e+00,
       3.0845515699994026e+00, -1.1205069399899790e+00,
       2.7998812892767204e+00, -1.1352113843287179e+00,
       2.6625304975251884e+00, -1.1613638649383942e+00,
       2.6212292714314702e+00, -1.1796287554564859e+00,
       2.6339419189570918e+00, -1.2146664679896411e+00,
       2.6936222380313422e+00, -1.2565576864726360e+00,
       2.8730129430743090e+00, -1.2879680572657510e+00,
       3.2904776127587851e+00, -1.3380137051650629e+00,
       4.1044610860516526e+00, -1.4108789102313075e+00,
       5.3432760432289417e+00, -1.4869653141061852e+00,
       6.9958249670911918e+00, -1.5690174911774863e+00,
       3.7890957294927392e+00, -2.0033696452127705e+00,
       3.8243494264139763e+00, -2.5446038931517441e+00,
       4.1640495047002979e+00, -3.1049064631500838e+00,
       5.1406672358184231e+00, -4.0848145045400290e+00,
       6.6225147960716599e+00, -5.4607102972452433e+00,
       7.1822808726062650e+00, -5.9624528928008695e+00,
       6.7863569855995323e+00, -5.5476707191968435e+00,
       6.3916332239109543e+00, -5.0449301106722757e+00,
       6.0782882496683523e+00, -4.5774698447689817e+00,
       5.7768790817587758e+00, -4.1567543427395730e+00,
       5.6325236917629260e+00, -3.9322096626664393e+00,
       5.7095304450147149e+00, -3.9370735600369615e+00,
       5.8616630903216373e+00, -4.0353865709754615e+00,
       5.9072093402757302e+00, -4.0652092882070505e+00,
       5.7649679870100137e+00, -3.9319142963306768e+00,
       5.7157217010993531e+00, -3.8520140599219719e+00,
       5.6898976621475947e+00, -3.8400246477094697e+00,
       5.6846954096181790e+00, -3.8906068496911037e+00,
       5.8202995836955349e+00, -4.0950204683440301e+00,
       5.9163788311092702e+00, -4.2967104163874863e+00,
       5.9632958297815088e+00, -4.5034232347744414e+00,
       5.9956990053273600e+00, -4.6883323421703329e+00,
       5.9586196945549972e+00, -4.7328759546197210e+00,
       5.5534152509047470e+00, -4.3633061925216987e+00,
       4.8459739688675398e+00, -3.6291705859119845e+00,
       4.2914319240361918e+00, -2.9203515976716869e+00,
       3.8511800321355261e+00, -2.2856109406405243e+00,
       3.5415341616225287e+00, -1.8145767162015780e+00,
       3.3932835491053353e+00, -1.4941014935074550e+00,
       3.3799970676141937e+00, -1.3151580285578430e+00,
       3.4618724389575641e+00, -1.1976800900407416e+00,
       3.5546707135441102e+00, -1.1201107715573844e+00,
       3.7271602492428633e+00, -1.0688180126505280e+00,
       3.9287226716007217e+00, -1.0392762915012994e+00,
       4.2703342259101769e+00, -1.0686917747022611e+00,
       4.6216535351318626e+00, -1.1564795091659248e+00,
       4.8354238985698483e+00, -1.2911195300102867e+00,
       4.7198566880755024e+00, -1.3906428961578845e+00,
       4.3526734573060448e+00, -1.4293034986101858e+00,
       3.9166748862829124e+00, -1.4056209813920741e+00,
       3.4299820367943981e+00, -1.3213540949127209e+00,
       3.1206448367350461e+00, -1.2414191513147832e+00,
       2.9956604492075334e+00, -1.1879849526514186e+00,
       3.0288108533205902e+00, -1.1483804472408430e+00,
       3.2012386264817243e+00, -1.1225566014026598e+00,
       3.4759791612401574e+00, -1.1013281148704395e+00,
       3.8016540314543130e+00, -1.1078291707577070e+00,
       4.0386073665206217e+00, -1.1265711552399216e+00,
       3.9238294689373174e+00, -1.1289495513568781e+00,
       3.4252487019237869e+00, -1.1106378792714238e+00,
       2.9413537457652708e+00, -1.0896070234096435e+00,
       2.7061505829691197e+00, -1.1178867719612338e+00,
       2.6075488689601776e+00, -1.1368552162248518e+00,
       2.5626628187406086e+00, -1.1515725884444525e+00,
       2.5926874962024407e+00, -1.1813623937425306e+00,
       2.7649713585245848e+00, -1.2416858113512648e+00,
       3.1541407618101198e+00, -1.3197732582072264e+00,
       3.8077420892380212e+00, -1.3809103880146076e+00,
       4.8892576330883921e+00, -1.4660723796564639e+00,
       6.4216929388566895e+00, -1.5467243690389236e+00,
       4.0670006312963034e+00, -2.1969777920041791e+00,
       4.2126081814643994e+00, -2.8642820334178327e+00,
       4.8295481538689335e+00, -3.6830178784709235e+00,
       6.0487209242508868e+00, -4.8377558326397532e+00,
       7.0815068268391848e+00, -5.7838431623477442e+00,
       6.8179617671496766e+00, -5.5225883506632476e+00,
       6.3078926783155698e+00, -4.9746500793520960e+00,
       6.1095316185977424e+00, -4.6545540627154240e+00,
       5.8782389961137014e+00, -4.2673167521960327e+00,
       5.6253003620992317e+00, -3.8731523081374095e+00,
       5.5404564157292269e+00, -3.6719103304244674e+00,
       5.5208653103086913e+00, -3.6003428448079977e+00,
       5.3868393781370028e+00, -3.4977176792643885e+00,
       5.3370968033023454e+00, -3.4380260261180609e+00,
       5.4150084456690983e+00, -3.4818129564583389e+00,
       5.6544709177228674e+00, -3.6349704336710942e+00,
       5.9734456983872324e+00, -3.9149494601684935e+00,
       6.1253526434846410e+00, -4.1628730234800875e+00,
       6.2391364188425769e+00, -4.3960005304042173e+00,
       6.3261507582145100e+00, -4.6329751141041520e+00,
       6.4434027084328838e+00, -4.9466307297957606e+00,
       6.5741137987787077e+00, -5.2532249593931777e+00,
       6.0832804116079737e+00, -4.9052149201327948e+00,
       4.9751479616772585e+00, -3.9027941262234642e+00,
       4.1482623248506378e+00, -3.0509105783633315e+00,
       3.7337159822794099e+00, -2.4545845063433758e+00,
       3.5375711582360521e+00, -1.9876906455994143e+00,
       3.4929554268728329e+00, -1.6411250209188573e+00,
       3.5301736200068459e+00, -1.3832620911843452e+00,
       3.5672216920299924e+00, -1.2035773073368812e+00,
       3.6520523629622947e+00, -1.0918246510724667e+00,
       3.7301945182899616e+00, -1.0027855678782400e+00,
       3.8804597410493518e+00, -9.5970885810208417e-01,
       4.0937642486510111e+00, -9.3703288944036034e-01,
       4.4025830323016546e+00, -9.5579722174737947e-01,
       4.8840902507482911e+00, -1.0379395948101167e+00,
       5.1671075568798779e+00, -1.1544045372175671e+00,
       5.1224211663410149e+00, -1.2721860872461099e+00,
       4.7239210493694541e+00, -1.3377632245056912e+00,
       4.1472763533645685e+00, -1.3436792706575629e+00,
       3.4169877976546457e+00, -1.2571322753828034e+00,
       2.9890442756126467e+00, -1.1863092678642577e+00,
       2.7991530645337774e+00, -1.1275711739197476e+00,
       2.7698833834338386e+00, -1.0968514563061387e+00,
       2.8918249961252647e+00, -1.0766794795262227e+00,
       3.1668254308486166e+00, -1.0621832010274250e+00,
       3.4711880145683280e+00, -1.0565703772140496e+00,
       3.8212818954710954e+00, -1.0800520513093328e+00,
       3.9799922547667892e+00, -1.1150405059779158e+00,
       3.6494665473090238e+00, -1.1010486875575061e+00,
       3.0940270077752414e+00, -1.0664044066879310e+00,
       2.7711145721644499e+00, -1.0679338597744483e+00,
       2.6007100898105575e+00, -1.0937530755446070e+00,
       2.5401995907668002e+00, -1.1195775877990344e+00,
       2.5861513042949129e+00, -1.1605614979452625e+00,
       2.7637879090275721e+00, -1.2441030290608248e+00,
       3.1378841402087727e+00, -1.3402058790303435e+00,
       3.6830364665874580e+00, -1.4253181204749208e+00,
       4.5535039548737783e+00, -1.5232179752159944e+00,
       5.7002361232286178e+00, -1.5583604003555505e+00,
       4.3251316099630666e+00, -2.3180859640825702e+00,
       4.7004696804092827e+00, -3.1890816352465405e+00,
       5.6217831955832169e+00, -4.2581603512566248e+00,
       6.7803564277953612e+00, -5.3670001239737681e+00,
       7.0163918509226955e+00, -5.5560597753759788e+00,
       6.3430671128427116e+00, -4.9416662991575606e+00,
       6.0978683238095304e+00, -4.6470750268155125e+00,
       5.8679601604732712e+00, -4.3593461815003840e+00,
       5.7477409630596092e+00, -4.1261752888215639e+00,
       5.4454444647286797e+00, -3.7130457109988182e+00,
       5.3185492566501855e+00, -3.4699393160601812e+00,
       5.1419383793125366e+00, -3.2295761758415718e+00,
       4.8340513224860482e+00, -2.9733318558232376e+00,
       4.7404699457615784e+00, -2.9122177680060659e+00,
       4.9720537416776809e+00, -3.0329814563203970e+00,
       5.5292609042750387e+00, -3.4321914500094799e+00,
       6.0252908963593130e+00, -3.8841235086219359e+00,
       6.2249025962146494e+00, -4.2059376480536805e+00,
       6.2075207273320183e+00, -4.3846432450036055e+00,
       6.3601656800531989e+00, -4.6817274936677595e+00,
       6.6360884218822882e+00, -5.1094819216003682e+00,
       6.5908294228148421e+00, -5.2088077514564324e+00,
       5.3802860398196097e+00, -4.2384490948059872e+00,
       4.2603160144861087e+00, -3.2322138021091096e+00,
       3.6132745689786328e+00, -2.5378356964008488e+00,
       3.3266775526379453e+00, -2.0740894476106586e+00,
       3.2852874739334004e+00, -1.7369962837959305e+00,
       3.4471910472319047e+00, -1.4960689865019450e+00,
       3.6327982054602708e+00, -1.2972483557214549e+00,
       3.7035657673898803e+00, -1.1332825814169978e+00,
       3.7745149548657850e+00, -1.0199244418122060e+00,
       3.8673728630926281e+00, -9.4732792595074611e-01,
       4.0636179451926333e+00, -9.2017277173003820e-01,
       4.3524979727290738e+00, -9.1028453852952551e-01,
       4.7402472422577793e+00, -9.3028035555958488e-01,
       5.2607334750023114e+00, -9.9328958461116146e-01,
       5.8814209517233920e+00, -1.1169272891594633e+00,
       6.0530971964274540e+00, -1.2444804789656192e+00,
       5.5415237998550619e+00, -1.3105991408999758e+00,
       4.5936157024711717e+00, -1.2808611258043885e+00,
       3.6619527180193554e+00, -1.2117811243365086e+00,
       3.0408551100349772e+00, -1.1342705220130462e+00,
       2.7379448858715385e+00, -1.0832566833634187e+00,
       2.6301994637892010e+00, -1.0517005756737268e+00,
       2.6338373249167555e+00, -1.0277129954086945e+00,
       2.8650463577888656e+00, -1.0277155908562134e+00,
       3.1692045011599221e+00, -1.0220410363602239e+00,
       3.5300966423401241e+00, -1.0431496652451437e+00,
       3.8728134256342019e+00, -1.0865765464654205e+00,
       3.8334106910366184e+00, -1.0972972298131636e+00,
       3.3395532900656719e+00, -1.0705251997018472e+00,
       2.8970427816443154e+00, -1.0447063733345969e+00,
       2.6814731411753336e+00, -1.0681046704785482e+00,
       2.6069160735125445e+00, -1.1033539252311737e+00,
       2.6750091096077382e+00, -1.1671925561298808e+00,
       2.8627913998208689e+00, -1.2675363882424859e+00,
       3.2188210651530187e+00, -1.4228525642674670e+00,
       3.6922491035353189e+00, -1.5548329269904784e+00,
       4.3756439165529297e+00, -1.6626942195021479e+00,
       5.1723866416312170e+00, -1.6819205351117414e+00,
       4.5401180720391228e+00, -2.3877512547843587e+00,
       5.1851800152068703e+00, -3.4721867212557402e+00,
       6.1130142568101462e+00, -4.5822929244531849e+00,
       6.9730400080825437e+00, -5.4290384445858315e+00,
       6.7281279001169372e+00, -5.1855862353582909e+00,
       6.2074969610213824e+00, -4.6830087367705406e+00,
       5.7649287184469173e+00, -4.2718321282193994e+00,
       5.6643816781464666e+00, -4.1715198402497311e+00,
       5.5567553578049029e+00, -4.0131053832635954e+00,
       5.4082731680968008e+00, -3.7595919704866669e+00,
       5.1525371805096691e+00, -3.3802010782518854e+00,
       4.7066153713946246e+00, -2.9381060027486243e+00,
       4.2953152823165901e+00, -2.5856113562180254e+00,
       4.1586250721299409e+00, -2.4551236945440729e+00,
       4.3873105667144543e+00, -2.5869698321437111e+00,
       4.9471381236494825e+00, -2.9679975721064333e+00,
       5.5727482579750358e+00, -3.4657737724338409e+00,
       5.9694766160114856e+00, -3.8953072612554744e+00,
       6.1050937572228312e+00, -4.1478725232896263e+00,
       6.0964313998442448e+00, -4.3103949805127115e+00,
       6.1539841454194297e+00, -4.4621708569987568e+00,
       5.4986086792266882e+00, -4.0468998826004015e+00,
       4.5130988417578983e+00, -3.2887841386650960e+00,
       3.7434537226472488e+00, -2.6371487283158843e+00,
       3.3184940816477573e+00, -2.1636236931988875e+00,
       3.2154316902754547e+00, -1.8621317781860511e+00,
       3.3289708301986898e+00, -1.6485508949778653e+00,
       3.5979793668067854e+00, -1.4793422085149379e+00,
       3.8281126832775416e+00, -1.3281387487080571e+00,
       3.9569368968160301e+00, -1.1916450101022680e+00,
       4.0334509038471449e+00, -1.1038489771745463e+00,
       4.2226854316297056e+00, -1.0724744314242920e+00,
       4.4582123099904392e+00, -1.0716164306828226e+00,
       4.8344715453339466e+00, -1.0714460293378514e+00,
       5.3081881647685991e+00, -1.0839846765539554e+00,
       5.9844576977833412e+00, -1.1178580440092394e+00,
       6.9947680434121144e+00, -1.2466742005862230e+00,
       7.3988607035828631e+00, -1.3474972377113403e+00,
       7.0344117054852093e+00, -1.4253405725041661e+00,
       5.5941677964702858e+00, -1.3220818702384785e+00,
       4.2357249459915485e+00, -1.2020762663912574e+00,
       3.3558216446926759e+00, -1.0936417597553809e+00,
       2.9356355119315944e+00, -1.0558299233080384e+00,
       2.7552372168373074e+00, -1.0159738618487739e+00,
       2.7431039515362126e+00, -9.9093443785598767e-01,
       2.8899783352783377e+00, -9.9090923831587996e-01,
       3.2301346582304036e+00, -1.0089979455769889e+00,
       3.6423215467147410e+00, -1.0427038153340240e+00,
       4.0573483969973507e+00, -1.0956478586470644e+00,
       4.1407988526054123e+00, -1.1039742269662531e+00,
       3.7152335755404193e+00, -1.0737539252491817e+00,
       3.1169655400936760e+00, -1.0261359737961218e+00,
       2.8132450666065787e+00, -1.0548046597775471e+00,
       2.7279658713349173e+00, -1.1015696096359333e+00,
       2.7999361774887386e+00, -1.1845635408337585e+00,
       3.0206387793893406e+00, -1.3298475456665633e+00,
       3.3823558186728220e+00, -1.5503439473363081e+00,
       3.7955584606250166e+00, -1.7640372338049011e+00,
       4.2691364682219035e+00, -1.9019076826421102e+00,
       4.7188284428329252e+00, -1.8680736935309452e+00,
       4.5431395456506527e+00, -2.3851482614665929e+00,
       5.3106530170843174e+00, -3.5559017794035443e+00,
       6.2654175160949590e+00, -4.7247173841094359e+00,
       6.8296009250787320e+00, -5.3071198192026126e+00,
       6.4658979083116472e+00, -4.9549510614558869e+00,
       6.0452035879468342e+00, -4.5159483665783888e+00,
       5.6197646139855131e+00, -4.1579452200188642e+00,
       5.3432508651785247e+00, -3.9698443423353438e+00,
       5.3620951076235635e+00, -3.9603432550942896e+00,
       5.3860688200169760e+00, -3.8075220066763591e+00,
       5.0321868292373582e+00, -3.3372337048912906e+00,
       4.3783942162582052e+00, -2.7002622692425167e+00,
       3.8663300322511778e+00, -2.2710786933964466e+00,
       3.7383297809407448e+00, -2.1291663735046615e+00,
       3.9151703811389993e+00, -2.1981627015904688e+00,
       4.3192077474805979e+00, -2.4482983246820522e+00,
       4.7995499077853570e+00, -2.7878354481669039e+00,
       5.2029553763358889e+00, -3.1274742726383509e+00,
       5.3479722907121188e+00, -3.3167297586111935e+00,
       5.3361859243892882e+00, -3.4060499314383299e+00,
       5.0991787278331984e+00, -3.3182890867860331e+00,
       4.5650571829081059e+00, -2.9736055871365070e+00,
       4.0117600387833559e+00, -2.5649583431356202e+00,
       3.5558212189265324e+00, -2.1921412243555141e+00,
       3.3901986406078515e+00, -1.9696975896657327e+00,
       3.4474144990780058e+00, -1.8325572748126604e+00,
       3.7249956738587584e+00, -1.7532613720990931e+00,
       4.0545474364317817e+00, -1.6701040983110744e+00,
       4.2911644002929350e+00, -1.5666214669004872e+00,
       4.4510210621824537e+00, -1.4807217414763267e+00,
       4.6540216096998721e+00, -1.4540462555103266e+00,
       4.8227070198519808e+00, -1.4601621599897869e+00,
       5.1005767706218208e+00, -1.4767846411134289e+00,
       5.5353496241684770e+00, -1.5094521740415592e+00,
       6.0203314422175485e+00, -1.4905007428742738e+00,
       6.6307711537680065e+00, -1.4575077423637093e+00,
       7.5035502329144403e+00, -1.4691207059252875e+00,
       8.3775606890344552e+00, -1.5515880134275726e+00,
       8.5642767488595588e+00, -1.6165442790667415e+00,
       7.1809278131844980e+00, -1.4869158773494178e+00,
       5.5133371663552975e+00, -1.3098150205767380e+00,
       4.2107680278187232e+00, -1.1282138556658470e+00,
       3.5147789400482967e+00, -1.0269681372407551e+00,
       3.2501030429627908e+00, -9.7465604517915316e-01,
       3.1769278804495733e+00, -9.5994888290747016e-01,
       3.2270167102143281e+00, -9.4363253916619105e-01,
       3.5013334552229067e+00, -9.6579457418288162e-01,
       3.9642506059966096e+00, -1.0117526561036907e+00,
       4.4576343631294026e+00, -1.0640224122833093e+00,
       4.6351639182262270e+00, -1.0950374273941015e+00,
       4.2028620894567492e+00, -1.0710754079186486e+00,
       3.5223868580324642e+00, -1.0455435500745731e+00,
       3.0179008400523983e+00, -1.0529584822558833e+00,
       2.8603987036577934e+00, -1.1110026106767723e+00,
       2.9335813770218140e+00, -1.2277393340857721e+00,
       3.1789288600106396e+00, -1.4152099962429132e+00,
       3.5521482566773561e+00, -1.7055023247385992e+00,
       4.0034375481470530e+00, -2.0573605531452341e+00,
       4.3595488360463746e+00, -2.2457710483266573e+00,
       4.5949585533996720e+00, -2.1722706309973359e+00,
       4.4025363111698566e+00, -2.3685848469955939e+00,
       5.2017582278961854e+00, -3.5764337712213545e+00,
       6.3279935787264350e+00, -4.8647819147181472e+00,
       6.8050651308211663e+00, -5.3724301677264270e+00,
       6.4027878783118659e+00, -4.9806230851562594e+00,
       5.9250096270576336e+00, -4.4946699327748583e+00,
       5.4879783021032944e+00, -4.1215223436643669e+00,
       5.2130653188729079e+00, -3.9341506783604858e+00,
       5.3533095670777868e+00, -3.9879686466394042e+00,
       5.3878250829375149e+00, -3.7963348825450134e+00,
       4.8463392924586550e+00, -3.1628372896832966e+00,
       4.1063739288983925e+00, -2.4724681086887927e+00,
       3.5883530102088450e+00, -2.0267779343705565e+00,
       3.4355539295199344e+00, -1.8632035267131184e+00,
       3.5476191034904248e+00, -1.8770260360422684e+00,
       3.8008877850150227e+00, -1.9925069184421322e+00,
       4.1577177756580612e+00, -2.1892757872344850e+00,
       4.4624201302463646e+00, -2.3809867961383739e+00,
       4.6237642967788686e+00, -2.5173383416228923e+00,
       4.6525986894238445e+00, -2.5822727674172481e+00,
       4.4588782293061469e+00, -2.4849117513783132e+00,
       4.1631671512133730e+00, -2.2791779565437440e+00,
       3.8895358423886979e+00, -2.0958407233770955e+00,
       3.6990774859520523e+00, -1.9501220783062678e+00,
       3.7074318681823892e+00, -1.9079162788769071e+00,
       3.8640012541570918e+00, -1.9074885083958895e+00,
       4.1774144688266679e+00, -1.9440395649479127e+00,
       4.5307911209173737e+00, -1.9711815580277199e+00,
       4.8322256804589934e+00, -1.9741341822590255e+00,
       5.1937020032408201e+00, -2.0217698109501474e+00,
       5.5896259738646856e+00, -2.1256051713762245e+00,
       5.8034085898349135e+00, -2.1983673196269113e+00,
       6.0479536723874068e+00, -2.2409516923350097e+00,
       6.1186297603228956e+00, -2.1325224311713615e+00,
       6.0829030954090166e+00, -1.9244986379131390e+00,
       6.1242591443854781e+00, -1.6862903855172113e+00,
       6.2850399200893703e+00, -1.5072859577676823e+00,
       6.8328165608047646e+00, -1.4566035995971613e+00,
       7.5538354585137029e+00, -1.4915993431344223e+00,
       7.7440926168409101e+00, -1.5378767546765653e+00,
       6.9623812892111747e+00, -1.4356398096640441e+00,
       5.7098114997537248e+00, -1.2437115360190198e+00,
       4.6612216092756658e+00, -1.0725648339682754e+00,
       4.1747505095442392e+00, -9.7170086831144986e-01,
       4.0018698756705939e+00, -9.3111557170663206e-01,
       4.0238605277405917e+00, -9.1221428688282891e-01,
       4.2463288341809875e+00, -9.3289444600994587e-01,
       4.6827339783298942e+00, -9.7881022517051242e-01,
       5.2366256455846125e+00, -1.0476271259822956e+00,
       5.4211578279151800e+00, -1.0790730243973023e+00,
       4.8832672992113109e+00, -1.0626879558001079e+00,
       3.9667424349201794e+00, -1.0405264109131738e+00,
       3.2390700078409043e+00, -1.0490551997713102e+00,
       2.9609953008283108e+00, -1.1281323791765991e+00,
       2.9941393367689435e+00, -1.2659476671004326e+00,
       3.2525738191913711e+00, -1.5007983349106195e+00,
       3.7084282891535731e+00, -1.9008368301036296e+00,
       4.1713374694730936e+00, -2.3548571216073864e+00,
       4.5010016735535823e+00, -2.6194843361399047e+00,
       4.4745451965890002e+00, -2.4388077654534381e+00,
       4.2363545829854417e+00, -2.3687183309881981e+00,
       5.0475226888436513e+00, -3.5681968350545250e+00,
       6.3774055356733319e+00, -5.0175175905665164e+00,
       7.0187292408423287e+00, -5.6823777651421556e+00,
       6.5641995433013429e+00, -5.2335673982780282e+00,
       5.9084681835663329e+00, -4.5937147529843987e+00,
       5.6299752507459244e+00, -4.3193988320817986e+00,
       5.4465118651250668e+00, -4.1277586894775675e+00,
       5.3896549847727924e+00, -3.9528798886302137e+00,
       5.1496679243322836e+00, -3.5104757612208606e+00,
       4.5563370534686136e+00, -2.8576957107841929e+00,
       3.9014990785757484e+00, -2.2404369708718570e+00,
       3.4177172851965452e+00, -1.8283999075043695e+00,
       3.2568014602938939e+00, -1.6673734119814920e+00,
       3.2944882082163804e+00, -1.6326146005307598e+00,
       3.4583659611814399e+00, -1.6781252132284117e+00,
       3.6984016259175041e+00, -1.7759366285006994e+00,
       3.9499583529067208e+00, -1.8904673800907104e+00,
       4.1398347096889303e+00, -1.9854016981414744e+00,
       4.2163072050126020e+00, -2.0318029414697421e+00,
       4.1682013393246020e+00, -1.9976838079848389e+00,
       4.0934935729859436e+00, -1.9212743623844371e+00,
       4.0035926212785684e+00, -1.8684586671105434e+00,
       3.9380018449340022e+00, -1.8383019569676065e+00,
       4.0034452306854584e+00, -1.8782022463452264e+00,
       4.1460193373223957e+00, -1.9750976202970973e+00,
       4.2838470650169080e+00, -2.0417447559880175e+00,
       4.6343979891597415e+00, -2.1744787796887910e+00,
       5.1048232122283412e+00, -2.3279348068451888e+00,
       5.7831572608785882e+00, -2.6019204942759102e+00,
       6.3480826078116692e+00, -2.8734775310676914e+00,
       6.5597728985996904e+00, -3.0256668767589563e+00,
       6.3391086744026133e+00, -2.8913500868425750e+00,
       5.7984325560244594e+00, -2.5156636746811998e+00,
       5.3163677851189828e+00, -2.1014062744639843e+00,
       4.8527092543979711e+00, -1.6732611667846289e+00,
       4.7971212470168298e+00, -1.4348482899453738e+00,
       5.0202432662670065e+00, -1.2995018397139242e+00,
       5.5709958505000996e+00, -1.2915457508079808e+00,
       6.4445998108304430e+00, -1.3738444752442160e+00,
       7.2119277076970913e+00, -1.4498719716858148e+00,
       7.0628558002735362e+00, -1.3693956863044749e+00,
       6.2967953803690113e+00, -1.2025281373755456e+00,
       5.5938257569259235e+00, -1.0461809071344148e+00,
       5.3385001760907542e+00, -9.7503056849362180e-01,
       5.3826488339382017e+00, -9.6074383743014524e-01,
       5.5487531953544460e+00, -9.6655184697624508e-01,
       5.9080175306377054e+00, -9.9506143011692050e-01,
       6.4524719330251221e+00, -1.0530850963357026e+00,
       6.4600511739413955e+00, -1.0766751956568985e+00,
       5.6259398565362533e+00, -1.0489425349585748e+00,
       4.4437004088204377e+00, -1.0307129783319375e+00,
       3.5304964360317461e+00, -1.0576218994790598e+00,
       3.1046202906541320e+00, -1.1383607732398482e+00,
       3.0723947231518971e+00, -1.3148928051043955e+00,
       3.2634802261312488e+00, -1.5856298099859143e+00,
       3.7216218869160742e+00, -2.0433507020982953e+00,
       4.2782063632431653e+00, -2.6051661470290974e+00,
       4.6459537212118214e+00, -2.9632021441604453e+00,
       4.4932094191884167e+00, -2.7325916914677881e+00,
       4.1624501890234766e+00, -2.4018105747563090e+00,
       5.0077608033097354e+00, -3.6166198696567347e+00,
       6.5692356799019826e+00, -5.2622078197138675e+00,
       7.4613042312523934e+00, -6.1525639302515698e+00,
       6.7617782842521583e+00, -5.5209490743046130e+00,
       6.0008924297645940e+00, -4.7633381432110609e+00,
       5.8079330698152436e+00, -4.4934444116555001e+00,
       5.7584926044741103e+00, -4.3104010818784113e+00,
       5.4461577860692421e+00, -3.8529838893082129e+00,
       4.8700766308810337e+00, -3.1824012863040947e+00,
       4.2713360705059777e+00, -2.5391541069651464e+00,
       3.6645074310086265e+00, -1.9987838109849823e+00,
       3.2561712513614860e+00, -1.6736231994094151e+00,
       3.1017805084019732e+00, -1.5246843231467269e+00,
       3.0953716395248887e+00, -1.4720866335260681e+00,
       3.2447916252114060e+00, -1.4890674370022949e+00,
       3.4030811931684548e+00, -1.5332509701054549e+00,
       3.6579393609928141e+00, -1.6209692070281905e+00,
       3.8361288455204892e+00, -1.6884276441183623e+00,
       3.9967310888270471e+00, -1.7359504149654517e+00,
       4.0925279799140295e+00, -1.7611559276884965e+00,
       4.1767624275297663e+00, -1.7753649061192713e+00,
       4.2454612549351660e+00, -1.8033416881905981e+00,
       4.1769177747163431e+00, -1.8173446454064277e+00,
       4.1493529451431135e+00, -1.8935311335015836e+00,
       4.1057479103779855e+00, -1.9788805167810850e+00,
       4.1226950501752562e+00, -2.0834588653221315e+00,
       4.4150246043454944e+00, -2.2691291392114770e+00,
       5.1286265108393643e+00, -2.6184388985271534e+00,
       5.9462838764634585e+00, -3.0382972978930911e+00,
       6.4580590158410196e+00, -3.3532372750360215e+00,
       6.3480006131649693e+00, -3.3861494620224568e+00,
       5.8430321461816881e+00, -3.1132510956500923e+00,
       5.0027796033574248e+00, -2.5541873026830020e+00,
       4.3894078810328319e+00, -2.0624394873538043e+00,
       3.9465786236345384e+00, -1.6314345775208978e+00,
       3.7872382301644754e+00, -1.3606974725446757e+00,
       3.9401041585636936e+00, -1.2336116191950572e+00,
       4.3774583679691954e+00, -1.2109958357063566e+00,
       5.1867743265178419e+00, -1.2603502667118176e+00,
       6.2454115653148872e+00, -1.3540729400116089e+00,
       7.2952796409722707e+00, -1.4394924620292155e+00,
       7.4454457569468335e+00, -1.3763769535117092e+00,
       7.0495353862665100e+00, -1.2196428003921280e+00,
       6.7171935690181739e+00, -1.1166269009627947e+00,
       6.8462532963294223e+00, -1.0845823416964766e+00,
       7.1136752406146462e+00, -1.0935121888038246e+00,
       7.4819716629560418e+00, -1.1119400793216667e+00,
       7.7720646128416018e+00, -1.1113514537220723e+00,
       7.5181804895788691e+00, -1.1086497988381285e+00,
       6.5027548443998571e+00, -1.0768547021738277e+00,
       5.1508253117638079e+00, -1.0720489359951308e+00,
       4.0424487958744022e+00, -1.1009495062581807e+00,
       3.4354979796887104e+00, -1.2084671238241802e+00,
       3.2796066231613810e+00, -1.4102875885584096e+00,
       3.3726132456009230e+00, -1.7207329517780465e+00,
       3.7268463447082438e+00, -2.1832355922460378e+00,
       4.4068733758609220e+00, -2.8569704183818052e+00,
       4.8636507015136701e+00, -3.3271409816237103e+00,
       4.6759785795812432e+00, -3.1053189926855707e+00,
       4.0718228886323447e+00, -2.3732340267567920e+00,
       4.9561362663555366e+00, -3.6183510417490115e+00,
       6.4373817164679838e+00, -5.1961253284050795e+00,
       7.7876485427294231e+00, -6.4977911831723851e+00,
       6.9517914112450896e+00, -5.7424443067456128e+00,
       6.2720818261320037e+00, -5.0200165873110105e+00,
       6.1156303138115415e+00, -4.7258586153355076e+00,
       6.0139818341410587e+00, -4.4003687728180303e+00,
       5.3943319088112203e+00, -3.6687056632416755e+00,
       4.6308113965666822e+00, -2.8950583012964901e+00,
       3.9606103954212357e+00, -2.2558805403908786e+00,
       3.4007638030547653e+00, -1.8028558973230078e+00,
       3.0942604995680805e+00, -1.5589969350909196e+00,
       2.9443031767723240e+00, -1.4319942815057327e+00,
       2.9665355727151410e+00, -1.3861796123370504e+00,
       3.0753935127346073e+00, -1.3839270807305752e+00,
       3.2538313439530899e+00, -1.4120577199104398e+00,
       3.5049781437558623e+00, -1.4673811323296257e+00,
       3.7161226479372593e+00, -1.5253461906974326e+00,
       4.0188177755651528e+00, -1.6216648198171517e+00,
       4.2741937804512373e+00, -1.7137446515909609e+00,
       4.4624124462808030e+00, -1.7787886291057051e+00,
       4.5552439209868671e+00, -1.8779216360538995e+00,
       4.3792963072486879e+00, -1.9035038216685891e+00,
       4.1618442075354896e+00, -1.9624751535705838e+00,
       4.0151683865823857e+00, -2.0565581329545228e+00,
       4.0441222113551145e+00, -2.2103903263043865e+00,
       4.4475872251209410e+00, -2.5106809430851400e+00,
       5.2238537934563345e+00, -2.9711798176449302e+00,
       5.9922308163914959e+00, -3.4441504285793432e+00,
       6.2126443079459772e+00, -3.6412401442707596e+00,
       5.7599392259653985e+00, -3.4621087994593056e+00,
       5.1887273541124461e+00, -3.1196699556112613e+00,
       4.5042803781754497e+00, -2.6098330426487149e+00,
       3.8706103727126169e+00, -2.0517136817063424e+00,
       3.4938106230476067e+00, -1.6413253365251315e+00,
       3.3146184782061083e+00, -1.3486903502297103e+00,
       3.4023764107169781e+00, -1.2147700322231145e+00,
       3.7557115196845516e+00, -1.1989470079131395e+00,
       4.5476680737083628e+00, -1.2752615921803288e+00,
       5.7343521875336956e+00, -1.3996912130182437e+00,
       7.1489553095087697e+00, -1.5460543489422058e+00,
       7.9389046966460626e+00, -1.5612263561455035e+00,
       7.6996531005627578e+00, -1.3991699492429772e+00,
       7.3873151092366918e+00, -1.3072650757031585e+00,
       7.3550865962131287e+00, -1.2148193778289722e+00,
       7.5443691011098482e+00, -1.1895216333583793e+00,
       8.0260688763241106e+00, -1.1965045008822264e+00,
       8.3597095733465174e+00, -1.1818816619987873e+00,
       8.3728207074534495e+00, -1.1721466128802323e+00,
       7.3612081382167887e+00, -1.1298647900728929e+00,
       5.9492373025154972e+00, -1.1201995266847218e+00,
       4.7548897241630677e+00, -1.1851576348231121e+00,
       3.9278447643447905e+00, -1.3174362831274100e+00,
       3.5813595962590630e+00, -1.5540911350663964e+00,
       3.5930630904058627e+00, -1.9281114219277118e+00,
       3.9460629502715712e+00, -2.4742542922045918e+00,
       4.6843983056573926e+00, -3.2309921416183611e+00,
       5.1726335150761082e+00, -3.7303219207627833e+00,
       5.0040096012301154e+00, -3.5344064354709239e+00,
       4.0306603447531426e+00, -2.2943848288861526e+00,
       4.8389723085374703e+00, -3.4567675885728715e+00,
       6.2993006877331048e+00, -5.0536085275118303e+00,
       7.5407757934670334e+00, -6.2807182466636435e+00,
       7.1507557771249672e+00, -5.9232918457170936e+00,
       6.4422339498090446e+00, -5.1835091157863742e+00,
       6.3733730308431635e+00, -4.9195162244129325e+00,
       6.0354237152397507e+00, -4.3520138652537588e+00,
       5.3398191385549580e+00, -3.5495631661218972e+00,
       4.4207281399538161e+00, -2.6848147659661827e+00,
       3.7147539019580909e+00, -2.0697863220166144e+00,
       3.2188017660261732e+00, -1.6960894888224423e+00,
       2.9841655183531270e+00, -1.5109274030208368e+00,
       2.8747649863253462e+00, -1.4032301524946800e+00,
       2.8876343220974068e+00, -1.3541406280354722e+00,
       2.9968058047758674e+00, -1.3261816230073615e+00,
       3.1964438066586922e+00, -1.3477047676171705e+00,
       3.4670562570494043e+00, -1.3832234824837266e+00,
       3.8014496826877551e+00, -1.4577704535774083e+00,
       4.2631522278853407e+00, -1.6056889965581997e+00,
       4.6410130834197361e+00, -1.7541637686697209e+00,
       4.8643894103869112e+00, -1.8934369276474317e+00,
       4.8934584348757637e+00, -2.0145301636309476e+00,
       4.5250355516593537e+00, -2.0427899826060796e+00,
       4.1327984923411689e+00, -2.0851088587224162e+00,
       4.0662486591048657e+00, -2.2734879325272002e+00,
       4.2385361659785570e+00, -2.5513103363553147e+00,
       4.6715498464655703e+00, -2.9447736791690806e+00,
       5.3663511844217657e+00, -3.4427897203633173e+00,
       5.7255457154488196e+00, -3.7108734442371127e+00,
       5.8600457027213357e+00, -3.8387692697353883e+00,
       5.5756953631744617e+00, -3.6790264416240239e+00,
       4.9299057384878013e+00, -3.2331538672481703e+00,
       4.3694657649710420e+00, -2.7382237448130207e+00,
       3.7561728671630399e+00, -2.1262234589180391e+00,
       3.3710914949603779e+00, -1.6749503330352427e+00,
       3.2040209398814659e+00, -1.3845287717723074e+00,
       3.2563613407822385e+00, -1.2539056904499999e+00,
       3.5544801353783404e+00, -1.2312563398587077e+00,
       4.2083251253811147e+00, -1.3036342797569003e+00,
       5.4396425053080941e+00, -1.4839809037693157e+00,
       6.9470419283084119e+00, -1.6768652820608316e+00,
       8.0398184764899945e+00, -1.7352376383081760e+00,
       7.8790286611105662e+00, -1.6019328457177207e+00,
       7.3765560036445965e+00, -1.4325578052060648e+00,
       7.2243592741517100e+00, -1.3467555567298377e+00,
       7.3695380568533739e+00, -1.2898816610467114e+00,
       7.8833982774281468e+00, -1.2666175087032754e+00,
       8.5841355376066932e+00, -1.2517293371879181e+00,
       9.0268217263358128e+00, -1.2574560484408379e+00,
       8.3570360581372043e+00, -1.2496997980824536e+00,
       6.8709137997134384e+00, -1.2380720973013042e+00,
       5.5681470458562670e+00, -1.3122394984366552e+00,
       4.5990443283970670e+00, -1.4911088358851385e+00,
       4.0545639240756648e+00, -1.7834001758318960e+00,
       3.9263624841971021e+00, -2.2264105608920399e+00,
       4.3148594298150202e+00, -2.8968532902071225e+00,
       5.1824734733925828e+00, -3.7943536321485305e+00,
       5.6813327636616311e+00, -4.2891768863376214e+00,
       5.4606530406321454e+00, -4.0469926312089761e+00,
       4.0685433730322433e+00, -2.1526442431305828e+00,
       4.7376154846958434e+00, -3.2063602376382954e+00,
       5.8862564102775412e+00, -4.5778033922028678e+00,
       7.4520434503841084e+00, -6.1586798538482919e+00,
       7.3536500560582487e+00, -6.1062012878981875e+00,
       6.8472802089235181e+00, -5.5579855213724585e+00,
       6.3847211794544760e+00, -4.9442927334322189e+00,
       6.0835695289900027e+00, -4.4000627017201897e+00,
       5.2258565581357734e+00, -3.4477392748023763e+00,
       4.2667985486598203e+00, -2.5627858641460217e+00,
       3.6071480639018203e+00, -1.9990132249172177e+00,
       3.1896557206457832e+00, -1.6827549326682609e+00,
       2.9956260162922659e+00, -1.5337466996910469e+00,
       2.8899396731389784e+00, -1.4341367293749088e+00,
       2.8938048000326089e+00, -1.3634593550326670e+00,
       3.0092892651207999e+00, -1.3199915888413398e+00,
       3.2188771898738646e+00, -1.2985032262495799e+00,
       3.5575633181700397e+00, -1.3349069048254554e+00,
       4.0433549346948494e+00, -1.4337121001136865e+00,
       4.6502317253923877e+00, -1.6344196799540909e+00,
       5.1554636458892347e+00, -1.8580778578422590e+00,
       5.1847288814990895e+00, -2.0069146627809622e+00,
       4.9616531128417227e+00, -2.1204342787032053e+00,
       4.4590256539857025e+00, -2.1591815976753708e+00,
       4.2828521351589401e+00, -2.3605085268577826e+00,
       4.2969004787215841e+00, -2.6444275351024991e+00,
       4.6688139090783576e+00, -3.1060805798805027e+00,
       5.1863550220950669e+00, -3.6205782896459482e+00,
       5.5072429430488015e+00, -3.9168439212888879e+00,
       5.6675334837708329e+00, -4.0600980931603949e+00,
       5.5940001892540288e+00, -4.0020974249014305e+00,
       5.5216347220232089e+00, -3.9145014785369829e+00,
       5.1199803348842776e+00, -3.5426484462480712e+00,
       4.4154036452752488e+00, -2.8882189069512387e+00,
       3.7439091708359400e+00, -2.1918277939873705e+00,
       3.4118129800100934e+00, -1.7521450165507402e+00,
       3.2003241492396661e+00, -1.4289797996244578e+00,
       3.2155387368560264e+00, -1.2961365629328252e+00,
       3.4651559276227646e+00, -1.2723556972995465e+00,
       4.0158456281740111e+00, -1.3211298377115714e+00,
       5.1533230048250775e+00, -1.4913134278092413e+00,
       6.6690760060415100e+00, -1.7089988023555611e+00,
       8.0322836004880074e+00, -1.8700305014515590e+00,
       7.7214296636522937e+00, -1.6867805978036243e+00,
       7.1758616026438045e+00, -1.5046962391702905e+00,
       6.8689318032590680e+00, -1.3898297134794930e+00,
       6.7904374638403890e+00, -1.2864237063849857e+00,
       7.4811354829458896e+00, -1.2798609233078984e+00,
       8.6540533725549373e+00, -1.3300491486654484e+00,
       9.6033032738235224e+00, -1.3862207666885953e+00,
       9.0741871437577561e+00, -1.3867702382328728e+00,
       7.5278728357183660e+00, -1.3720785523234060e+00,
       6.0123237270859207e+00, -1.4262799106901904e+00,
       5.0744559039173964e+00, -1.6606113048892304e+00,
       4.4750671907407709e+00, -2.0404912770237535e+00,
       4.2360997239330374e+00, -2.5281013836863333e+00,
       4.7675793832664191e+00, -3.3902328480603541e+00,
       5.7370576417468939e+00, -4.3998997144619958e+00,
       6.3554834866616581e+00, -4.9905572753393921e+00,
       5.9455739050353422e+00, -4.5812464212904942e+00,
       4.2420080213884823e+00, -1.9979515288742649e+00,
       4.6329418056796898e+00, -2.8429537072280717e+00,
       5.4020689727015601e+00, -3.9850383658772750e+00,
       6.6219314178991331e+00, -5.3624660305732119e+00,
       7.3885113869825485e+00, -6.1372793403923307e+00,
       7.0131682516724503e+00, -5.7662479679408323e+00,
       6.4614720048526344e+00, -5.0624179885770113e+00,
       6.0824689691989100e+00, -4.4015467488758873e+00,
       5.1162680227838839e+00, -3.3792743751409362e+00,
       4.2276231154940858e+00, -2.5374271957615164e+00,
       3.6820835911023462e+00, -2.0486102332848852e+00,
       3.3436017824960373e+00, -1.7966556867593340e+00,
       3.1740698594004222e+00, -1.6626341714494848e+00,
       3.0884906362294742e+00, -1.5588506371557311e+00,
       3.0427354153255157e+00, -1.4410001863121777e+00,
       3.1213218539456773e+00, -1.3519427787807980e+00,
       3.3527492456922530e+00, -1.2972084595933893e+00,
       3.7329635214721786e+00, -1.3053531898758133e+00,
       4.3351764249492719e+00, -1.4241829587499168e+00,
       5.1010795154484834e+00, -1.6787376156232299e+00,
       5.4045800357230549e+00, -1.8923822195439755e+00,
       5.2631218703880398e+00, -2.0811185181266212e+00,
       4.7187148706270392e+00, -2.1668262489831482e+00,
       4.3601695443923747e+00, -2.3061877149016508e+00,
       4.3882413320135027e+00, -2.6542027156953623e+00,
       4.6733241741844180e+00, -3.1633876871101254e+00,
       5.0374069666680938e+00, -3.6442763375644676e+00,
       5.3878284640221432e+00, -4.0520571510560961e+00,
       5.6453407498908703e+00, -4.2937472018417360e+00,
       5.6688032532852581e+00, -4.2941021183334378e+00,
       5.7758346383759100e+00, -4.3553590434881286e+00,
       5.7070100051383070e+00, -4.2093312837783330e+00,
       5.2181654778007696e+00, -3.7234349167721379e+00,
       4.3890931413409797e+00, -2.9053062904447358e+00,
       3.7272025038149792e+00, -2.2167612123324010e+00,
       3.3321040059283074e+00, -1.7342698185411152e+00,
       3.1212146524205173e+00, -1.4411767655481467e+00,
       3.0839155200191888e+00, -1.2958136377658480e+00,
       3.2699498878188424e+00, -1.2652669418869957e+00,
       3.8081925728541210e+00, -1.3112349340383811e+00,
       4.8394645414666986e+00, -1.4543511952469992e+00,
       6.3753758302796273e+00, -1.6598404951440229e+00,
       8.1801246518236415e+00, -1.8834571898734622e+00,
       8.2375501409185858e+00, -1.7724509559265971e+00,
       7.1461209899238511e+00, -1.5023750904710127e+00,
       6.7514969946154633e+00, -1.3456270826638412e+00,
       6.7320402527127783e+00, -1.2464368645521546e+00,
       7.3992567796210018e+00, -1.2827085282318742e+00,
       8.7861769927403977e+00, -1.4190131873223439e+00,
       9.8356108977631411e+00, -1.5731872448065758e+00,
       9.2721814023399354e+00, -1.5755756921565494e+00,
       7.7086746096556027e+00, -1.5190623495497781e+00,
       6.3641092845833400e+00, -1.5902932831660659e+00,
       5.3435261941254470e+00, -1.8170762516528662e+00,
       4.7221717913347794e+00, -2.2080374212308183e+00,
       4.5427528793868248e+00, -2.8051630020781064e+00,
       5.1843601809164817e+00, -3.8057509078942258e+00,
       6.4780550248435906e+00, -5.1107146908800622e+00,
       7.2103913803601829e+00, -5.7606203568523489e+00,
       6.3666822080809657e+00, -5.0037569280119589e+00,
       4.4556611975534866e+00, -1.8079603336785663e+00,
       4.5425673769947910e+00, -2.5155711209684251e+00,
       5.0280005694097474e+00, -3.4982879394258295e+00,
       5.9956990053273840e+00, -4.7706262500866110e+00,
       7.3958861047092546e+00, -6.1849910267813648e+00,
       7.2632122068838347e+00, -6.0250313946837961e+00,
       6.7674179022425518e+00, -5.3475870874583267e+00,
       6.1469793176083041e+00, -4.4680811602730701e+00,
       5.0850256761580246e+00, -3.3637708776453650e+00,
       4.3238195458262556e+00, -2.6002762528186967e+00,
       3.9197553544195016e+00, -2.1949725773594793e+00,
       3.7325333929119329e+00, -2.0378254688983448e+00,
       3.6344831932958641e+00, -1.9581983410246027e+00,
       3.5143426698376068e+00, -1.8323628649366672e+00,
       3.3734076983330152e+00, -1.6280485769031066e+00,
       3.3712305588291143e+00, -1.4497846757317607e+00,
       3.5695632836223017e+00, -1.3247938011390636e+00,
       3.9999038998885865e+00, -1.3042362543235355e+00,
       4.7317059579133183e+00, -1.4293353983592849e+00,
       5.5094860691579077e+00, -1.7065426572922215e+00,
       5.5401894539729390e+00, -1.9080744763048674e+00,
       5.0111756069008901e+00, -2.0634252499003658e+00,
       4.4931855852709202e+00, -2.2306567537949649e+00,
       4.3882101716631912e+00, -2.5427071337823470e+00,
       4.6131517966628754e+00, -3.0344642095003875e+00,
       4.9644174363898861e+00, -3.5969122527153568e+00,
       5.2784315085504225e+00, -4.0493849563144142e+00,
       5.5704267170396706e+00, -4.3556303715676083e+00,
       5.7319961947504057e+00, -4.4593211457429609e+00,
       5.8579858395748090e+00, -4.5227096555540767e+00,
       5.9561259568452236e+00, -4.5404296978407457e+00,
       5.6143444953862147e+00, -4.1654291772285807e+00,
       4.9994040010942005e+00, -3.5366314405664347e+00,
       4.2305661002423234e+00, -2.7749976253838606e+00,
       3.5740084148267961e+00, -2.1199805969262382e+00,
       3.1908883764648688e+00, -1.6935262819265380e+00,
       2.9541270488530702e+00, -1.4096842137101906e+00,
       2.9108704922964943e+00, -1.2852987268897398e+00,
       3.0558020557481762e+00, -1.2513104092756584e+00,
       3.5314917634013661e+00, -1.2773654175347957e+00,
       4.5458119158750510e+00, -1.3917944326055727e+00,
       6.1595482525599605e+00, -1.5972554047079486e+00,
       8.5580734357738883e+00, -1.9040973076825609e+00,
       8.8464877234461490e+00, -1.7986327836798932e+00,
       7.8391021308988735e+00, -1.5095018463132237e+00,
       7.2808751735607231e+00, -1.3436447840481127e+00,
       7.2844606970502479e+00, -1.2600772699424565e+00,
       8.0220389642956480e+00, -1.3455651861392073e+00,
       9.5281801773238808e+00, -1.6308903556111436e+00,
       9.4765191594106835e+00, -1.7094897307172183e+00,
       8.6014031723657993e+00, -1.7138320623139438e+00,
       7.6036311573827788e+00, -1.7024854653136443e+00,
       6.5021019743267203e+00, -1.7727039840616805e+00,
       5.6744765978465850e+00, -2.0174825966392262e+00,
       5.0518424655194787e+00, -2.4252631259640656e+00,
       4.8614570358702371e+00, -3.0168228624268556e+00,
       5.6054427516174226e+00, -4.0894840559017398e+00,
       7.1232628405543013e+00, -5.5991968002742265e+00,
       7.8508829435567478e+00, -6.2424480152415578e+00,
       6.9158313087662631e+00, -5.4126151494386932e+00,
       4.6302919645196106e+00, -1.6559835996521561e+00,
       4.4337208596644970e+00, -2.2304121717908547e+00,
       4.5794721471219839e+00, -3.0337022234135058e+00,
       5.4980459648249438e+00, -4.3240831514013891e+00,
       6.9703114667911183e+00, -5.8439670186971826e+00,
       7.7936213046899931e+00, -6.5144606222708523e+00,
       7.0483031222458727e+00, -5.5941333171804350e+00,
       5.9926373158217219e+00, -4.3771480924763555e+00,
       4.9499611857399204e+00, -3.2849872171223837e+00,
       4.3497650882899732e+00, -2.6247847174926249e+00,
       4.1570029975526488e+00, -2.3454462991093634e+00,
       4.2348572813565450e+00, -2.3477325862560838e+00,
       4.3346039436586707e+00, -2.4087799077909442e+00,
       4.2319389891717902e+00, -2.2815618016304788e+00,
       3.9174297764883024e+00, -1.9427876218518545e+00,
       3.7663456426328081e+00, -1.6182905542350512e+00,
       3.8863254171109856e+00, -1.4024614358461374e+00,
       4.3323186168709746e+00, -1.3205576729799053e+00,
       5.0411656619738618e+00, -1.4167012843597837e+00,
       5.7989316345440054e+00, -1.7144303935691954e+00,
       5.6483158191795901e+00, -1.9532944526937952e+00,
       4.9158580620424468e+00, -2.1146127615210264e+00,
       4.4203042792117548e+00, -2.3413082267831800e+00,
       4.4966762743449342e+00, -2.7758029319831685e+00,
       4.8084459549725613e+00, -3.3324970740416799e+00,
       5.1297296416484688e+00, -3.8289556373619424e+00,
       5.4611686656975396e+00, -4.2300436187418464e+00,
       5.7286557205707878e+00, -4.4331007373978704e+00,
       5.8854385556222386e+00, -4.4974050508230938e+00,
       5.7118565863706783e+00, -4.3020096319493097e+00,
       5.4211445147157367e+00, -4.0236522436211954e+00,
       5.0894359107366469e+00, -3.6869059511371591e+00,
       4.5634480178982644e+00, -3.1223037649564582e+00,
       3.9416183049850155e+00, -2.4905617623165099e+00,
       3.4357108025408940e+00, -1.9979232916621139e+00,
       3.0736981046837974e+00, -1.6323924940042143e+00,
       2.8669561545839888e+00, -1.4032212735844463e+00,
       2.8024087701739857e+00, -1.2930837699055393e+00,
       2.9128709057524746e+00, -1.2513249929037007e+00,
       3.3832623364275309e+00, -1.2806252794199591e+00,
       4.3232115431593021e+00, -1.3667731072433269e+00,
       5.9334497219261149e+00, -1.5408491405901541e+00,
       8.2100873881468086e+00, -1.7897422334022426e+00,
       9.1197956348336380e+00, -1.7663687220062698e+00,
       8.4210744942727711e+00, -1.5135108801269346e+00,
       7.8579340516682326e+00, -1.3363925904480731e+00,
       8.2865817452590687e+00, -1.3899378896243353e+00,
       9.3233571523151699e+00, -1.5993267502630582e+00,
       9.2481499445532709e+00, -1.7328280951472619e+00,
       8.1016417625286241e+00, -1.6948503744851517e+00,
       7.4205576937122855e+00, -1.7229045717927112e+00,
       7.0945747858233084e+00, -1.8092393138933462e+00,
       6.5665939715129884e+00, -1.9514220723879125e+00,
       6.0833706335206941e+00, -2.2589863615478514e+00,
       5.6094408458325189e+00, -2.6858352146784581e+00,
       5.3750047372895491e+00, -3.2546056654654918e+00,
       6.1120849203657599e+00, -4.3189951862307723e+00,
       7.5822063894792837e+00, -5.7887565909527936e+00,
       8.0626627511050319e+00, -6.2304296155381698e+00,
       7.1569158128987604e+00, -5.4487903174153978e+00,
       4.5378731672356922e+00, -1.4907724623505274e+00,
       4.3034402845913995e+00, -2.0277542586651700e+00,
       4.3462344598986284e+00, -2.7849487360976726e+00,
       5.1948075732139962e+00, -4.0455987006160186e+00,
       6.7770920976765279e+00, -5.6720039831332496e+00,
       7.9018695147739981e+00, -6.5905875350299237e+00,
       7.2652494716826590e+00, -5.7703007914656030e+00,
       5.8881754850583148e+00, -4.3213910739822419e+00,
       4.8355205843936258e+00, -3.2338589652203380e+00,
       4.3687065785427013e+00, -2.6435209789711234e+00,
       4.4035287010216893e+00, -2.4921585298429281e+00,
       4.6798526089284129e+00, -2.6185853482196033e+00,
       5.1016707287104808e+00, -2.8881517132864141e+00,
       5.1756536842846241e+00, -2.8622797580996209e+00,
       4.6339671993621483e+00, -2.3648198239420797e+00,
       4.2971630399432499e+00, -1.8599975315048494e+00,
       4.2667793340188265e+00, -1.5023541651587067e+00,
       4.6138175291774735e+00, -1.3407743096612066e+00,
       5.3691174609417027e+00, -1.4331580258344103e+00,
       6.1210889411548051e+00, -1.7662553931411802e+00,
       5.9782812058343842e+00, -2.0884335873322817e+00,
       5.0143487305541994e+00, -2.2448898036500706e+00,
       4.5332108304316927e+00, -2.5093439536273685e+00,
       4.6308057406515575e+00, -2.9579471962777744e+00,
       4.9066560142724214e+00, -3.4639463436398978e+00,
       5.2226880624163217e+00, -3.8965349171557020e+00,
       5.6233465188434719e+00, -4.2505883980669754e+00,
       5.8559851669409841e+00, -4.3631142078600922e+00,
       5.8081112032320839e+00, -4.2375095058874876e+00,
       5.2838926954005734e+00, -3.7729248793599854e+00,
       4.7907850138311145e+00, -3.3607329243507302e+00,
       4.4015457972886365e+00, -3.0045499901734098e+00,
       4.0759113870294374e+00, -2.6351213727966254e+00,
       3.6588585407868677e+00, -2.1955261313083816e+00,
       3.3364915935661599e+00, -1.8549854214402843e+00,
       3.0816184555155681e+00, -1.6016774123606707e+00,
       2.8997208641670542e+00, -1.4230204552266168e+00,
       2.8238024020794850e+00, -1.3403290467309792e+00,
       2.9790634785478232e+00, -1.3381733237836781e+00,
       3.4807243515078712e+00, -1.3856655247092748e+00,
       4.3597530107358660e+00, -1.4758794794128911e+00,
       5.8720370050382513e+00, -1.6163340614214277e+00,
       7.7798103201901849e+00, -1.7744607737227289e+00,
       8.6185287105816606e+00, -1.7157532358089873e+00,
       8.5919447352864093e+00, -1.5630501538328105e+00,
       8.8442455768316215e+00, -1.5138247331047414e+00,
       9.2937362747061893e+00, -1.6057689664947925e+00,
       9.4110243100702515e+00, -1.7598181271858557e+00,
       8.1041383606905697e+00, -1.7509892945978760e+00,
       6.7688739783971617e+00, -1.6795317354125581e+00,
       6.5447235955508782e+00, -1.7930051580544650e+00,
       6.6526219154033939e+00, -1.9290301609370384e+00,
       6.6264654660938334e+00, -2.1482511890222877e+00,
       6.2876995579965200e+00, -2.4365742318314654e+00,
       6.0855181447773257e+00, -2.9130820853935524e+00,
       5.9423510348594739e+00, -3.4853910726665673e+00,
       6.5065469074061442e+00, -4.4217502166593974e+00,
       7.6931176260200882e+00, -5.6192146074023812e+00,
       8.0440217465229331e+00, -5.9817553869976905e+00,
       7.2024738827619670e+00, -5.2770374534918876e+00,
       4.4412843886746085e+00, -1.3787447441888943e+00,
       4.1945046716328180e+00, -1.8956306723904610e+00,
       4.2847193953932008e+00, -2.6610232508067684e+00,
       5.0713523718077989e+00, -3.8846734647368550e+00,
       6.6204471068049848e+00, -5.5128394334000603e+00,
       7.7988063056130441e+00, -6.4819144450112489e+00,
       7.1757313405614918e+00, -5.7016854907875523e+00,
       5.8092184088101932e+00, -4.2706465782184484e+00,
       4.7811947663846421e+00, -3.2009740509203755e+00,
       4.4191261683037473e+00, -2.6704621427088138e+00,
       4.5386362959552402e+00, -2.5530483524075782e+00,
       4.9553861850385239e+00, -2.7578981763964401e+00,
       5.5550303184253886e+00, -3.1400017108446630e+00,
       5.7719160801281761e+00, -3.2226531447382309e+00,
       5.2212547332383430e+00, -2.6630205802053015e+00,
       4.7473233971171673e+00, -2.0359556195306721e+00,
       4.5688402055954240e+00, -1.5519301505742260e+00,
       4.8492280714810487e+00, -1.3368935868347851e+00,
       5.6513012245056586e+00, -1.4323799816437346e+00,
       6.5108414713078728e+00, -1.8295314341953628e+00,
       6.4171082885621225e+00, -2.2509839195605026e+00,
       5.2420413238896888e+00, -2.3945910799613732e+00,
       4.6927645590950124e+00, -2.6378532962802228e+00,
       4.7468414479713061e+00, -3.0400042837209535e+00,
       4.9163423700002511e+00, -3.4177652306325244e+00,
       5.2209201321623988e+00, -3.7707147217494681e+00,
       5.5811738306526264e+00, -4.0553633033049437e+00,
       5.6900620902565482e+00, -4.0279995477450452e+00,
       5.4072455052649522e+00, -3.6804506964180845e+00,
       4.7734359457783846e+00, -3.1448519172186984e+00,
       4.2485506102866823e+00, -2.7435493344109050e+00,
       3.8873632197871122e+00, -2.4412596183317019e+00,
       3.5986199914826233e+00, -2.1718315000499198e+00,
       3.4265434623504638e+00, -1.9433876401664130e+00,
       3.3541704892780988e+00, -1.7753504469777606e+00,
       3.2598551139925189e+00, -1.6253216486748732e+00,
       3.2130119892960005e+00, -1.5422086959002650e+00,
       3.2083620893227045e+00, -1.5152757399370396e+00,
       3.4143346072228393e+00, -1.5631312156538926e+00,
       3.9225232102384342e+00, -1.6644709216225133e+00,
       4.7102636575648464e+00, -1.7602369377750986e+00,
       5.8729621279827278e+00, -1.8242084210677614e+00,
       6.9828598547603411e+00, -1.7990730335145204e+00,
       7.4537135205770957e+00, -1.6573121383266980e+00,
       7.6857723084027922e+00, -1.5358247432880987e+00,
       8.2948279206159476e+00, -1.5613793732924113e+00,
       9.6045365847023234e+00, -1.8386539326943085e+00,
       9.2320205230744765e+00, -1.9638009053840912e+00,
       7.2505885296046086e+00, -1.7890220890376742e+00,
       6.1651153021775844e+00, -1.7569156439279421e+00,
       6.0602600440737282e+00, -1.8809872870360311e+00,
       6.4867617848157435e+00, -2.0818240676182009e+00,
       6.6001023043146647e+00, -2.3218352973655958e+00,
       6.4641347877395683e+00, -2.6264741434267087e+00,
       6.3823991209302271e+00, -3.0991811186985316e+00,
       6.3308793442664673e+00, -3.6729323069965782e+00,
       6.5200102312393211e+00, -4.3635939292694497e+00,
       7.3973793504194356e+00, -5.3001753777168998e+00,
       7.5317477079979867e+00, -5.4809318600560868e+00,
       6.6019026301004446e+00, -4.7523038424979047e+00,
       4.3219705304843359e+00, -1.3469393740909668e+00,
       4.2118207397761021e+00, -1.8950764366628128e+00,
       4.3330018974247464e+00, -2.6653958903622281e+00,
       5.1742939104434980e+00, -3.9210047279831324e+00,
       6.7020912203247516e+00, -5.5377284866898977e+00,
       7.7103168903289081e+00, -6.3899140064862490e+00,
       7.1746933377205968e+00, -5.6985850054069722e+00,
       5.8140946563438609e+00, -4.2599811193107682e+00,
       4.7868002323955672e+00, -3.1823663828752058e+00,
       4.4609966514607668e+00, -2.6458546748528406e+00,
       4.6740151140582737e+00, -2.5670693736294115e+00,
       5.1440340179888873e+00, -2.7835335173465827e+00,
       5.7212843348016769e+00, -3.1655133741688166e+00,
       5.9715544908026832e+00, -3.2426849530218038e+00,
       5.4815611188596218e+00, -2.6984201678538478e+00,
       5.0047861525405670e+00, -2.0392916125014651e+00,
       4.7702222959497371e+00, -1.5417941671078614e+00,
       5.0574335382089863e+00, -1.3133577406317807e+00,
       5.7930918128108324e+00, -1.4133607216895165e+00,
       6.8158440927830792e+00, -1.8810393256063092e+00,
       6.8713043625471109e+00, -2.4154576552425553e+00,
       5.5568966690423824e+00, -2.5360150974894400e+00,
       4.8547522377215353e+00, -2.7115499090157469e+00,
       4.7272762958194186e+00, -2.9895796920389701e+00,
       4.8046996645389566e+00, -3.2383232398769768e+00,
       4.9669157108129234e+00, -3.4355932546418795e+00,
       5.0660842104819146e+00, -3.4992209105502807e+00,
       5.1052247089247356e+00, -3.4067217478066940e+00,
       4.7983814361300956e+00, -3.0139314539568001e+00,
       4.3487557036587123e+00, -2.6156486511711941e+00,
       3.8375990265704978e+00, -2.2556406735182501e+00,
       3.5367345592077002e+00, -2.0463701172163105e+00,
       3.2977352582971897e+00, -1.8683362847469183e+00,
       3.2766066097487774e+00, -1.7885283484009311e+00,
       3.4084446909985457e+00, -1.7643713694580694e+00,
